tree
version=v4
num_class=1
num_tree_per_iteration=1
label_index=0
max_feature_idx=193
objective=binary sigmoid:1
feature_names=Market_Relative_Strength True_Range_Ratio_x_ADX_neg Price_Change_10d True_Range_Ratio_x_BB_width poly_SMA_200_SMA_100 AD_Line_div_Volume_SMA_20 RSI_9 VWAP_20d_40d_Diff CMF SMA_200_x_Volume_SMA_20 OBV_x_SMA_200 OBV_div_Volume_SMA_20 poly_OBV_MACD_signal ADX poly_True_Range_Ratio_OBV poly_AD_Line_SMA_100 True_Range_Ratio_x_SMA_200 AD_Line_div_OBV poly_OBV_SMA_200 SMA_100 poly_AD_Line_OBV High_Low_Ratio SMA_200_div_BB_width AD_Line_div_SMA_200 AD_Line_minus_OBV SMA_200_div_Volume_SMA_20 AD_Line_x_MACD_signal Composite_Trend_Strength poly_OBV_Volume_SMA_20 poly_BB_width_SMA_100 MACD_signal_div_BB_width poly_True_Range_Ratio_AD_Line poly_AD_Line_BB_width poly_OBV_ADX poly_MACD_signal_ADX VWAP_20d_40d_Slope_Difference poly_Volume_SMA_20_Volume_SMA_10 poly_AD_Line_Volatility_20d AD_Line_x_SMA_200 poly_SMA_200_MACD_signal RSI_VWAP_20d_Sync_Indicator poly_AD_Line_MACD_signal AD_Line_div_BB_width poly_True_Range_Ratio_SMA_200 RSI_VWAP_40d_Sync_Indicator ATR Stoch_D AD_Line_div_MACD_signal MACD_signal_x_Volume_SMA_20 poly_MACD_signal_SMA_100 poly_OBV_BB_width True_Range_Ratio_x_Volume_SMA_20 Multi_Period_RSI_Diff poly_True_Range_Ratio_Volatility_20d AD_Line_x_Volume_SMA_20 poly_AD_Line_CMF OBV_div_SMA_200 Volume_SMA_10 poly_BB_width_ADX poly_SMA_200_ADX Volatility_10d Volatility_20d poly_True_Range_Ratio_MACD_signal poly_True_Range_Ratio_SMA_100 OBV_x_MACD_signal poly_Volatility_20d_SMA_100 BB_width poly_ADX_Volatility_20d poly_AD_Line_ADX poly_True_Range_Ratio_ADX poly_MACD_signal_Volume_SMA_10 poly_MACD_signal_Volatility_20d AD_Line_x_OBV poly_MACD_signal_CMF poly_SMA_200_Volume_SMA_20 poly_MACD_signal_BB_width SMA_200_x_BB_width poly_AD_Line_RSI_9 poly_Volume_SMA_20_Volatility_20d Price_Change_20d poly_Volatility_20d_ADX_pos Volume_SMA_20_div_BB_width Volume_SMA_20_x_ADX_neg OBV_div_ADX_neg poly_ADX_neg_Volatility_20d MACD_histogram ADX_pos SMA_200_x_MACD_signal poly_ADX_CMF Price_Position_in_VWAP_40d_Bands OBV_minus_Volume_SMA_20 poly_AD_Line_ADX_pos poly_SMA_200_Volatility_20d SMA_200_div_ADX_neg poly_BB_width_CMF poly_AD_Line_Volume_SMA_20 Volume_SMA_20_x_BB_width Volume_RSI poly_True_Range_Ratio_CMF consecutive_touch_VWAP_40d_upper_1sigma poly_OBV_Volatility_20d AD_Line_x_ADX_neg MACD_signal_x_ADX_neg ADX_neg_x_BB_width Volume_SMA_20_div_ADX_neg OBV_x_Volume_SMA_20 OBV_div_MACD_signal poly_CMF_ADX_pos poly_BB_width_Volatility_20d poly_Volume_SMA_20_BB_width True_Range_Ratio_minus_ADX_neg MACD_signal_minus_BB_width poly_ADX_neg_ADX_pos SMA_200_x_ADX_neg PSAR AD_Line_x_BB_width True_Range_Ratio_x_MACD_signal True_Range_Ratio_div_MACD_signal poly_True_Range_Ratio_Volume_SMA_20 ADX_neg_minus_BB_width AD_Line_div_ADX_neg poly_OBV_ADX_neg VWAP_20d_lower_2sigma VWAP_40d_upper_2sigma poly_True_Range_Ratio_ADX_pos poly_ADX_ADX_pos RSI_21 poly_Volume_SMA_20_ADX poly_Volume_SMA_20_ADX_neg Price_Change_5d Volatility_5d poly_OBV_RSI_9 poly_OBV_CMF VWAP_40d_lower_1sigma True_Range_Ratio_x_OBV poly_True_Range_Ratio_ADX_neg MACD_signal_x_BB_width OBV_x_BB_width OBV_div_BB_width SMA_50 BB_Convergence_Indicator MACD poly_MACD_signal_ADX_neg poly_Volume_SMA_10_ADX_pos poly_SMA_200_ADX_pos poly_SMA_200_BB_width poly_RSI_9_CMF poly_OBV_ADX_pos poly_BB_width_RSI_9 Stoch_K poly_CMF_SMA_100 Price_Volume_Sync poly_Volume_SMA_20_RSI_9 poly_ADX_neg_CMF consecutive_touch_VWAP_20d_upper_1sigma poly_ADX_RSI_9 poly_AD_Line_ADX_neg Range_Position_20d MACD_signal_minus_ADX_neg poly_True_Range_Ratio_BB_width poly_True_Range_Ratio_RSI_9 poly_CMF_Volume_SMA_10 VWAP_20d_Divergence_Rate poly_ADX_neg_ADX consecutive_touch_VWAP_20d_lower_1sigma BB_upper poly_BB_width_ADX_pos poly_MACD_signal_RSI_9 SMA_5 poly_MACD_signal_ADX_pos ADX_neg_div_BB_width Range_Position_10d consecutive_touch_VWAP_40d_lower_1sigma poly_SMA_200_ADX_neg poly_Volatility_20d_CMF poly_RSI_9_ADX_pos poly_RSI_9_SMA_100 EMA_10 AD_Line_minus_SMA_200 poly_ADX_neg_BB_width CCI SMA_10 VWAP_20d Days_Above_SMA_50 Price_Volume_Trend Range_Position_5d Price_Position_in_VWAP_20d_Bands consecutive_touch_VWAP_20d_lower_2sigma poly_RSI_9_Volatility_20d poly_ADX_neg_RSI_9 VWAP_20d_BB_Dual_Lower_Break consecutive_touch_VWAP_40d_lower_2sigma touch_VWAP_40d_lower_2sigma VWAP_Lower_Touch_Composite
feature_infos=[-0.14348111025930424:0.20739473797002786] [0:2.0427314352627293] [-0.1666666666666666:0.23639847599232827] [0:3.4391688744154298] [-0.00067779124985109637:21.010269900921731] [-1918.553564374743:147.34197439992647] [17.590490503115376:100] [-345.89932609051317:233.61935120687505] [-0.60355621190813002:0.52083440223047539] [0:10540243530.742273] [-12611777570.134178:334208924314.46576] [-162.4967768960434:6226.5598672850583] [-20.378448574780428:37.665965104520467] [0:60.366043210312668] [-3.349772044239645:41.653052207062181] [-5.5678546917161658:64.238941944347175] [0:174.23316048133825] [-30.107472429997539:6.6273213244797198] [-20.533756379397111:28.219346047516279] [85.069999999999993:6310.820999999999] [-803.62248932559442:362.5340293820779] [0:1] [4.8631652764811548:98634758636.474594] [-811919.173145668:33561.8103189674] [-296274800.45384669:11000062.722296525] [9.5066243947315664e-05:70000000000] [-1226583815.1556799:1883444327.1048727] [0:38.691704085699172] [-5.4940894376762159:479.27327548293999] [-2.2039623524679555:4.4437167105101016] [-7.4338177825091023:11.06516654938293] [-71.315967916487509:11.12786136113013] [-53.04090347560085:17.924157240454363] [-8.245836988796853:18.220614138029667] [-4.9660036304934314:10.774118045248983] [-115.03483678616887:113.72268594468004] [-0.0030583152632924606:896.93290715560875] [-10.17341503068331:67.291927935591644] [-39530436484.517555:204739194129.18863] [-16.390532550950081:18.225834049562049] [-38.341400175353627:440.77323346130305] [-39.754621097649945:60.724598438528552] [-8513584.5839322209:6105332.7613339061] [-3.1342901827425069:3.2557551448945588] [-132.0024250902967:681.67010643436856] [0:267.81794331510036] [2.5398374833249955:97.102466688691322] [-137930630.43043894:8068183.6622591959] [-87002293.346531928:141283962.26030967] [-15.720668060168778:18.641137893798394] [-4.3452958028397264:36.747756305062488] [0:151628.01725850496] [-9.1410824365066681:9.3523851222887373] [-0.95881135706901832:11.442579665149491] [-143178394181278.91:181165381483322.41] [-13.99807696721005:29.342862657754196] [-8137.2571619008413:1644711.142606314] [0:4887211.9999999981] [-1.3783258786876127:6.5183344637858305] [-2.3977399383977018:2.8907495378732935] [0:265.16967118611456] [0:364.56755074164931] [-8.4226825762895725:10.021989847599] [-2.8193711353739488:3.3072448814716782] [-2708178553.0132484:5043155831.2796221] [-0.53704223487985236:25.586747750062159] [0:53.199303825746235] [-1.497863276108603:6.2180324099234054] [-27.713750986338603:17.896379387473459] [-1.9851820627185972:4.7593788100245966] [-37.370111800283148:59.759262180350795] [-24.887729465193321:42.332448055763926] [-14312747424488128:6511912344099148] [-2.2264480283285724:6.7536762482089854] [-8.3526032646211785:42.934466990049735] [-10.875221458338981:16.279510416908995] [0:98287.46246603124] [-19.114071425444997:26.884722566333259] [-3.2160546231785863:59.95132825685662] [-0.2111061462078411:0.35179976637626942] [-2.6205625519166218:5.8084211008005076] [0:429276.68187248008] [0:101618369.68700501] [-535579.10495990585:1320000000000] [-3.3025412672547474:5.2112208381308083] [-42.760923036224362:40.947035848910673] [0:58.012580829709449] [-328157.62094332505:381162.0813456811] [-2.3707969136144662:2.1134887184031648] [-1:1] [-12862395.689999998:288289321.80000013] [-18.473337742196531:26.510700716077903] [-0.60701712721065426:23.898180114753863] [4.7417213315642135:98634758636.474594] [-3.120015335610852:2.9780339274555274] [-445.05195732536441:561.5755165983561] [0:87842255.35534367] [42.674516277758059:97.272920183544556] [-3.2045059604877077:1.8140238717514767] [0:280] [-8.2777886258904658:43.770584246976497] [-2009391791.2090282:1441282104.5067515] [-3103.5950765294497:2162.8354975859852] [0:1294.8257636764442] [0:3428500000000] [-6360034023752.9375:652674988868537.75] [-2689903.3158891667:1001249580.6512889] [-2.335669962730833:2.4905749700049808] [-0.56135409824195603:17.037529840888336] [-3.0903918351514168:41.479678463829742] [-48.429320978516884:0] [-120.5263818987363:106.44208157771487] [-3.1310895145613711:3.8339985263552738] [0:164793.48669984] [107.49830641322548:5132.9835419534265] [-1731061969.7155797:728976699.47529805] [-3.7772712925377516:4.6216700074314234] [0:0.29458090305035245] [-2.6248006691355417:36.219967412590108] [-33.601616675845278:38.645343962166606] [-7716203.7445319341:3821960.9856576226] [-11.548525520008798:12.862764041677673] [0:6645.1910650160044] [0:7770.4041410762138] [-2.6324917598498132:3.4488885755563201] [-1.8787982797619449:4.3480153691704535] [28.760044658999032:100] [-8.1523671591977731:19.159202503024879] [-10.588931211128958:14.555959032229188] [-0.12814879179725799:0.16263441086949382] [0:195.59763853277047] [-13.708109866941292:13.183737689414766] [-13.769762012222287:11.156614641430851] [0:6624.5433372349707] [-277911.68725945015:10285473.031840924] [-2.6287670203698936:2.8811531983124112] [-2198.1491495046062:3123.0986234428692] [-118978364.06070936:4723053192.2431955] [-947361.24574736971:56230643.453789175] [83.525800000000004:7158.9699289062301] [-0.019432519874848019:51518788.796329364] [-114.26788550712764:149.02567165133519] [-8.2728871521507958:1.8341919736264061] [-7.6272682845402242:18.829614420880276] [-2.4851238460036873:3.0585578177706201] [-2.3736371171020361:4.5553163688011153] [-1.1887078049915243:2.4342225651774196] [-11.131583420509884:14.140195167353117] [-3.0606040821242058:4.0542371886602346] [0:100] [-2.1325699968145728:2.42322509521399] [-0.12692263761730935:0.15742101866388969] [-11.54587400393533:14.571742092864371] [-2.2159338027955457:1.8888478995496447] [0:320] [-3.9696615258067474:3.2187914551104804] [-19.433213410954384:25.030785885056247] [0:1] [-131.75321811972822:118.21709091844703] [-0.26039374863277864:14.350128979382415] [-3.8640003078746799:2.1161493220963692] [-9.2199242786843563:11.779687338984104] [-0.22086212975084149:0.47518975616499332] [-3.1937515213538092:2.9599384290905131] [0:27] [89.704418120826475:7941.913773358734] [-2.6811847769472816:5.5966194336504076] [-2.1277569119902213:8.3298693098148249] [82.985029174804694:7358.9527451171762] [-1.4909872258397519:8.6249149067963113] [0:15.103744037824752] [0:1] [0:49] [-2.1530614471618232:3.6466427198375428] [-3.1247866287891628:3.7431966128607104] [-5.1418895374620277:4.209802815571912] [-2.5298892076803798:3.3641379670764531] [83.101577996751914:7349.724267137316] [-118849545.8956686:72651252.977187365] [-3.4083632424444255:3.730171733062706] [-246.13911849091275:270.62795965682653] [83:7344.2329999999811] [0:7345.8942034742049] [0:1] [-66945.308794705357:85316.494087424842] [0:1] [-1:1] [0:13] [-4.0112933902043153:4.8261164859334116] [-4.8645680002437626:0.58129334314117986] [0:1] [0:21] [0:1] [0:81]
tree_sizes=3486 3508 3524 3523 3497 3513 3536 3520 3525 3558 3540 3545 3525 3517 3523 3512 3538 3539 3549 3553 3543 3535 3516 3524 3529 3527 3550 3536 3515 3529 3489 3492 3532 3505 3544 3547 3539 3498 3538 3532 3517 3529 3506 3532 3518 3525 3533 3534 3506 3532 3537 3546 3518 3522 3521 3539 3520 3520 3525 3540 3509 3520 3476 3522 3513 3532 3507 3546 3509 3543 3511 3529 3477 3492 3485 3511 3502 3516 3534 3508 3521 3489 3523 3514 3522 3472 3499 3546 3502 3501 3550 3547 3496 3533 3516 3491 3529 3507 3498 3506 3490 3505 3529 3479 3495 3512 3523 3440 3505 3496 3449 3499 3472 3479 3523 3498 3446 3539 3514 3456 3523 3507 3437 3499 3516 3449 3539 3485 3483 3462 3504 3512 3510 3466 3484 3482 3475 3476 3465 3509 3461 3473 3458 3475 3449 3476 3474 3470 3500 3442 3501 3471 3482 3509 3452 3479 3444 3473 3496 3480 3477 3496 3501 3476 3518 3454 3465 3462 3439 3444 3467 3484 3536 3445 3480 3487 3461 3466 3466 3458 3461 3494 3519 3450 3483 3518 3474 3500 3482 3471 3462 3487 3447 3497 3450 3450 3506 3441 3471 3516 3495 3444 3445 3535 3448 3464 3521 3486 3472 3517 3469 3514 3472 3508 3446 3491 3487 3519 3494 3493 3511 3475 3460 3465 3536 3449 3487 3511 3504 3490 3486 3484 3483 3500 3486 3482 3479 3517 3514 3497 3465 3475 3450 3439 3487 3450 3459 3423 3542 3452 3440 3471 3449 3449 3509 3450 3481 3497 3500 3463 3462 3531 3438 3478 3505 3459 3442 3481 3469 3435 3497 3494 3496 3452 3487 3474 3530 3523 3468 3474 3453 3502 3466 3436 3493 3483 3495 3475 3484 3501 3502 3448 3479 3459 3451 3512 3452 3475 3452 3497 3511 3498 3486 3501 3464 3459 3427 3512 3449 3504 3517 3505 3524 3501 3482 3457 3480 3473 3463 3481 3475 3464 3484 3453 3465 3501 3480 3515 3450 3526 3455 3470 3482 3496 3494 3481 3475 3517 3517 3494 3455 3485 3455 3455 3503 3464 3462 3487 3468 3479 3455 3491 3497 3439 3455 3506 3499 3505 3487 3445 3483 3502 3497 3509 3480 3491 3464 3465 3495 3504 3471 3468 3471 3473 3459 3516 3507 3463 3518 3462 3496 3488 3473 3468 3490 3512 3497 3495 3520 3516 3463 3486 3477 3472 3484 3453 3517 3510 3452 3486 3461 3477 3472 3468 3444 3475 3415 3469 3486 3482 3482 3497 3465 3475 3492 3467 3464 3509 3492 3485 3468 3455 3457 3474 3481 3517 3467 3455 3493 3478 3473 3499 3502 3489 3461 3457 3474 3464 3486 3474 3463 3492 3494 3469 3484 3488 3474 3460 3490 3494 3488 3493 3442 3474 3477 3499 3450 3445 3498 3519 3497 3484 3473 3487 3518 3492 3420 3449 3510 3458 3486 3476 3455 3461 3451 3488 3480 3514 3498 3469 3465 3468 3459 3464 3485 3485 3497 3496 3479 3483 3467 3479 3468 3457 3437 3474 3486 3469 3498 3511 3493 3507 3473 3442 3491 3502 3491 3480 3456 3491 3443 3450 3439 3434 3478 3503 3469 3457 3505 3464 3444 3441 3460 3450 3473 3493 3526 3518 3519 3472 3466 3532 3480 3494 3481 3505 3459 3468 3515 3468 3475 3448 3470 3454 3500 3468 3464 3493 3494 3522 3466 3451 3455 3462 3453 3467 3494 3484 3465 3455 3485 3459 3482 3477 3513 3487 3499 3492 3511 3487 3454 3479 3488 3505 3505 3490 3444 3523 3491 3449 3498 3502 3525 3495 3521 3493 3486 3464 3481 3496 3423 3486 3469 3443 3435 3462 3500 3445 3494 3497 3474 3478 3487 3470 3498 3475 3498 3471 3431 3473 3475 3453 3480 3501 3536 3430 3489 3462 3446 3490 3448 3456 3484 3438 3448 3510 3460 3500 3506 3457 3488 3480 3487 3458 3470 3464 3450 3468 3484 3459 3479 3456 3471 3457 3476 3425 3477 3508 3491 3466 3456 3468 3475 3472 3526 3473 3474 3463 3464 3474 3497 3491 3493 3459 3461 3479 3515 3474 3489 3482 3481 3505 3477 3488 3473 3423 3423 3484 3460 3471 3497 3478 3511 3464 3490 3482 3424 3440 3498 3477 3470 3482 3473 3520 3466 3505 3487 3497 3479 3458 3463 3491 3509 3471 3520 3456 3508 3497 3503 3473 3507 3451 3447 3477 3457 3417 3453 3433 3438 3470 3467 3500 3457 3479 3495 3459 3458 3461 3495 3473 3501 3469 3498 3485 3473 3443 3487 3480 3502 3471 3461 3454 3472 3460 3452 3493 3513 3467 3523 3493 3441 3475 3490 3514 3471 3453 3486 3501 3480 3467 3452 3436 3445 3485 3441 3464 3479 3489 3481 3510 3455 3466 3502 3474 3473 3442 3463 3504 3470 3493 3461 3480 3490 3485 3485 3483 3488 3466 3465 3477 3487 3528 3463 3482 3513 3466 3506 3498 3497 3485 3494 3495 3492 3471 3451 3495 3484 3461 3460 3483 3489 3492 3490 3521 3460 3516 3500 3432 3458 3496 3473 3495 3469 3459 3484 3490 3508 3521 3492 3501 3509 3479 3480 3487 3522 3478 3472 3460 3438 3496 3484 3501 3436 3494 3494 3494 3482 3481 3501 3474 3431 3459 3464 3507 3519 3471 3471 3501 3471 3480 3453 3503 3480 3463 3501 3526 3489 3488 3423 3479 3477 3516 3471 3472 3488 3472 3523 3480 3479 3491 3478 3492 3475 3494 3486 3472 3478 3462 3477 3485 3464 3513 3495 3468 3431 3475 3482 3494 3470 3486 3532 3499 3516 3442 3493 3431 3476 3471 3489 3444 3496 3495 3454 3463 3469 3474 3500 3466 3484 3509 3502 3502 3535 3423 3499 3435 3443 3504 3503 3462 3467 3492 3455 3471 3465 3465 3464 3488 3471 3488 3445 3458 3431 3438 3446 3478 3470 3453 3462 3457 3490 3475 3475 3477 3496 3476 3449 3513 3443 3471 3475 3494 3485 3469 3463 3482 3455 3473 3502 3473 3476 3485 3510 3430 3478 3468 3498 3480 3459 3441 3533 3478 3433 3507 3495 3483 3485 3532 3497 3527 3458 3451 3444 3461 3466 3487 3513 3458 3504 3480

Tree=0
num_leaves=31
num_cat=0
split_feature=3 1 66 9 129 110 11 116 0 2 110 0 2 21 1 7 39 2 0 2 16 2 24 109 130 7 35 23 139 16
split_gain=2603.96 691.492 613.373 368.178 248.516 209.094 175.945 129.487 106.945 178.254 104.614 110.037 267.948 88.1202 82.3355 81.1028 73.3937 70.8576 119.851 75.3914 64.7203 63.6576 61.854 59.3884 58.8811 58.3956 57.5142 50.2982 50.0179 53.3342
threshold=0.061211166010311138 0.86637451637621699 1.7340725997602144 33505003.804392245 -0.038216546019618242 -41.722548992621789 16.786278279289295 0.028059640562805358 -0.066202176806345089 -0.10604072905664098 -27.627622065183569 -0.045685267099389464 -0.058659200481133295 0.82758620689655016 0.49237350180029155 -257.76944959389078 -2.248007679618349 -0.094513013673756988 -0.093909015106774768 -0.12303666173959268 2.4478596824909586 -0.098108956493539998 -12334680.570583211 -0.40625448056048641 4.4237411777146471 -7.3546906143237427 -0.1276898029472022 583.93581738425507 1072.842840576172 18.575016176666676
decision_type=2 2 2 2 2 2 2 2 2 2 2 2 2 2 2 2 2 2 2 2 2 2 2 2 2 2 2 2 2 2
left_child=2 3 20 6 -4 8 15 25 -3 -10 11 17 21 24 16 26 -5 18 -7 -20 -1 -13 -17 -24 -8 -6 -2 -9 29 -18
right_child=1 5 4 14 7 10 13 27 9 -11 -12 12 -14 -15 -16 22 28 -19 19 -21 -22 -23 23 -25 -26 -27 -28 -29 -30 -31
leaf_value=-0.86336962335055345 -0.77714288150400079 -0.75881481658534933 -0.72984498915632035 -0.76772741051116644 -0.8106664212320478 -0.77668574258819145 -0.80329072014486758 -0.80387157672856513 -0.65254870842495838 -0.74842321098280351 -0.78076928886972374 -0.65854406641690111 -0.76677898477513973 -0.8090389108834648 -0.77924532935716484 -0.74439579722881599 -0.79107023077596528 -0.78494525558307859 -0.6843447328748149 -0.75040862582412682 -0.83892147041140697 -0.72178578940568638 -0.82691454954034682 -0.78752930598009097 -0.79284329921877472 -0.82462577382287372 -0.70540389527763192 -0.76314269598251083 -0.79313772429999929 -0.7725261791829785
leaf_weight=738.81684343516827 61.371367186307907 265.87106274068356 86.263250380754471 419.29948070645332 1086.6594525575638 567.14868347346783 2194.1336695104837 1077.0031185597181 80.04027958214283 122.95731957256794 2310.6534330844879 49.569181188941002 1051.8966501653194 2013.452931150794 6252.3689710050821 80.469449982047081 810.27371501922607 871.21591180562973 57.508833587169647 173.38484156131744 427.23913310468197 201.71008795499802 98.923777177929878 2949.6881585419178 3499.8846112191677 2412.3668178617954 51.285862788558006 81.542375981807709 3187.0193896889687 743.53771783411503
leaf_count=3443 286 1239 402 1954 5064 2643 10225 5019 373 573 10768 231 4902 9383 29137 375 3776 4060 268 808 1991 940 461 13746 16310 11242 239 380 14852 3465
internal_value=-0.791753 -0.785411 -0.821922 -0.789388 -0.813936 -0.769949 -0.795938 -0.815493 -0.737949 -0.710621 -0.772789 -0.766586 -0.755698 -0.800048 -0.783103 -0.786165 -0.787778 -0.775086 -0.764322 -0.733954 -0.854412 -0.70931 -0.787665 -0.788807 -0.796869 -0.820291 -0.744485 -0.801005 -0.789552 -0.782196
internal_weight=34023.6 28113.7 5909.89 22361.7 4743.84 5751.96 10949.2 4657.57 468.869 202.998 5283.09 2972.43 1303.18 7707.47 11412.5 3241.74 5160.13 1669.26 798.042 230.894 1166.06 251.279 3129.08 3048.61 5694.02 3499.03 112.657 1158.55 4740.83 1553.81
internal_count=158555 131014 27541 104209 22107 26805 51025 21705 2185 946 24620 13852 6073 35918 53184 15107 24047 7779 3719 1076 5434 1171 14582 14207 26535 16306 525 5399 22093 7241
is_linear=0
shrinkage=1


Tree=1
num_leaves=31
num_cat=0
split_feature=3 1 66 52 9 1 110 11 116 54 7 113 190 21 145 151 113 23 181 39 104 154 55 105 60 18 159 168 193 173
split_gain=2377.09 665.494 533.785 295.629 251.571 207.328 200.621 133.37 102.455 80.6149 79.3487 75.0679 64.0493 63.6684 62.6375 62.1504 60.6714 58.2415 64.211 50.2045 49.9076 52.5981 49.0196 47.8918 46.9705 46.0667 45.3943 70.6363 47.4475 45.5461
threshold=0.056010217994179906 0.63150250649441686 1.7340725997602144 -9.1409800790493421 33505003.804392245 1.3273657040417854 -32.922391311514282 16.786278279289295 0.028059640562805358 18058381260.57629 -174.34609030831095 47847.100110370142 1.0000000180025095e-35 0.99999999999999833 1.8243123969606752 0.025930485402818153 5220.439762221481 -478.57422814160117 227.7227752685547 -2.248007679618349 18267.368895986536 11.500000000000002 1.2885066463652888 14583009750.000002 8.0521641477835288 1.4624402210709349 1.5290724865525813 564.67081298828145 77.500000000000014 0.21614755443760006
decision_type=2 2 2 2 2 2 2 2 2 2 2 2 2 2 2 2 2 2 2 2 2 2 2 2 2 2 2 2 2 2
left_child=2 4 16 15 7 9 11 10 -5 12 -2 26 24 -9 -8 -4 -1 18 -12 23 21 -21 -11 -6 -3 -26 27 28 -7 -29
right_child=1 5 3 8 19 6 14 13 -10 22 17 -13 -14 -15 -16 -17 -18 -19 -20 20 -22 -23 -24 -25 25 -27 -28 29 -30 -31
leaf_value=-0.070251889131949782 0.047091327812094567 -0.00041942226953455811 0.024736412201235632 -0.029179427485784865 0.051410842042413966 0.078163342477168538 0.012517449533953885 -0.0075301121335943398 -0.010536462213203025 0.022080046063415761 -0.025920308523984699 0.066147666273847647 0.024506110705885525 -0.019853034924071231 0.078003113235704719 0.098627597428965541 -0.046517440728562717 -0.003393272760419592 0.01787594590828509 0.0038081674042445093 0.010490202904693704 -0.011699613096192142 0.0040429685983366095 0.013520220634485642 0.0090499667034486826 0.035772853210505239 0.0052783030429443259 0.011935851964575682 -0.0037695842789931622 0.071626387272416506
leaf_weight=700.48796224594116 98.871198311448097 1406.3370213955641 67.289128497242928 3108.3022048771381 98.371384516358376 143.66723090410233 907.62062245607376 5244.516107916832 965.99083571135998 2385.2688557356596 94.878596499562263 357.68478508293629 616.01893615722656 1310.0011524111032 38.046624049544334 49.312760964035988 437.37696459889412 1857.3033909201622 709.71266795694828 4361.4011241197586 2526.182347536087 625.15186443924904 447.32658000290394 547.7557165324688 4429.8679155409336 167.36565455794334 97.236832022666931 160.47842447459698 20.148070335388184 39.904741391539574
leaf_count=3356 453 6538 314 14641 455 657 4204 24507 4518 11057 441 1639 2853 6146 176 226 2078 8651 3300 20282 11745 2910 2074 2534 20561 776 448 739 93 183
internal_value=-9.04268e-05 0.00560551 -0.0307585 -0.0225127 -0.000495586 0.01511 0.0308419 -0.00611019 -0.0247593 0.0121727 0.00310825 0.0489556 0.00915218 -0.009993 0.0151521 0.0559861 -0.0611287 0.00147458 0.0127114 0.00591482 0.00476459 0.001864 0.0192316 0.019289 0.00757673 0.0100228 0.035629 0.0437323 0.0680862 0.0238228
internal_weight=34019.9 28691.1 5328.76 4190.89 17474.1 11217 1764.79 9315.28 4074.29 9452.18 2760.77 819.12 6619.59 6554.52 945.667 116.602 1137.86 2661.89 804.591 8158.86 7512.74 4986.55 2832.6 646.127 6003.57 4597.23 461.435 364.198 163.815 200.383
internal_count=158555 133422 25133 19699 81424 51998 8139 43498 19159 43859 12845 3759 30728 30653 4380 540 5434 12392 3741 37926 34937 23192 13131 2989 27875 21337 2120 1672 750 922
is_linear=0
shrinkage=0.05


Tree=2
num_leaves=31
num_cat=0
split_feature=3 1 66 16 129 1 0 2 82 48 51 127 23 102 22 16 11 154 11 49 157 1 85 0 101 21 164 38 105 41
split_gain=2168.95 595.987 506.329 242.474 217.455 184.818 153.881 446.623 95.1283 89.2578 85.6719 73.9292 72.5443 69.1921 68.1895 61.9673 60.086 55.7021 65.4719 54.4963 59.4326 54.1605 51.0051 50.4194 47.1419 45.1028 45.0285 44.9591 44.529 52.6734
threshold=0.056010217994179906 0.63150250649441686 1.7340725997602144 16.095058911501241 -0.038216546019618242 1.2467080524766481 -0.073764810475086609 -0.080000057135078032 7173958.3641315466 5268.9805638480184 104.24428415321272 -1.8937661864006514 154.89778423658308 -1177.9392512735924 109.05092925047724 2.4478596824909586 16.786278279289295 13.500000000000002 21.780129623840839 -2.1305850356980454 0.53346867082787741 0.24062661326466714 1.7097400571360473 -0.05722349134192805 30910351.369539447 0.28571428571428586 9.5000000000000018 -10722949135.287287 65883258000.000008 3.392549283414064
decision_type=2 2 2 2 2 2 2 2 2 2 2 2 2 2 2 2 2 2 2 2 2 2 2 2 2 2 2 2 2 2
left_child=2 3 15 8 -4 12 13 23 16 21 -5 -10 -3 26 17 -1 22 18 -12 -16 -21 -6 -2 -8 -22 -18 -7 -13 -20 -30
right_child=1 5 4 10 9 6 7 -9 11 -11 14 27 -14 -15 19 -17 25 -19 28 20 24 -23 -24 -25 -26 -27 -28 -29 29 -31
leaf_value=-0.068684336994223327 0.0052631329275749372 0.0079393422585591431 0.058001461471191063 -0.0077097932989008376 -0.035802634047019298 0.013696425703449564 0.062972198568950533 0.022183734151581244 0.068277427964483661 -0.013560953093219974 0.022406932434513291 -0.025859592842689284 0.01735907713695398 0.0053332076060629502 0.019426177585395995 -0.044218576125747255 -0.0054399730143179989 -0.0018725163219816177 -0.0068357790687252635 0.0072833830178768892 -0.0068801516555861975 -0.021253199925227256 -0.016716757419374641 0.10914211871275115 0.005514933403879034 -0.015946736075785183 0.052635391406908053 0.015659126908882794 0.018508438876674704 -0.017298756601430761
leaf_weight=697.87712830305099 996.76644885540009 6006.3416413366795 84.088680759072304 1362.5042125880718 1348.4375381618738 143.29065860807896 85.093005955219269 854.27677831053734 55.531907379627228 1504.3416748940945 1360.9788436442614 83.63278965651989 3098.2481700330973 743.19956940412521 453.79993769526482 411.3729347884655 1515.7518300116062 616.91339458525181 415.08381921052933 2530.5056955963373 2326.1664017140865 1216.8449048101902 358.99924226105213 193.81372247636318 1144.5183101445436 3131.9710129648447 154.07452996075153 295.89327818155289 700.56556294858456 120.3481013327837
leaf_count=3443 4632 27789 378 6377 6425 652 386 3925 257 7105 6304 387 14275 3411 2092 1991 7098 2869 1944 11762 10834 5791 1668 859 5316 14705 701 1370 3251 558
internal_value=-9.01167e-05 0.00531236 -0.0296004 -0.000472058 -0.0215861 0.0142723 0.0273715 0.0401195 -0.00818248 -0.0232306 0.00402818 0.0143942 0.0111448 0.0134888 0.00568226 -0.059611 -0.00981855 0.011633 0.0148413 0.00271942 0.00145608 -0.0289011 -0.00055702 0.0950559 -0.00279266 -0.0125202 0.033872 0.00651002 0.0065106 0.013259
internal_weight=34011.2 28748.3 5262.96 17469.9 4153.71 11278.3 2173.75 1133.18 6438.55 4069.62 11031.4 435.058 9104.59 1040.56 9668.88 1109.25 6003.49 3213.89 2596.98 6454.99 6001.19 2565.28 1355.77 278.907 3470.68 4647.72 297.365 379.526 1236 820.914
internal_count=158555 133422 25133 81424 19699 51998 9934 5170 30117 19321 51307 2014 42064 4764 44930 5434 28103 14926 12057 30004 27912 12216 6300 1245 16150 21803 1353 1757 5753 3809
is_linear=0
shrinkage=0.05


Tree=3
num_leaves=31
num_cat=0
split_feature=3 66 1 51 129 16 110 48 110 0 2 0 2 7 140 16 2 0 2 129 12 11 2 83 66 19 100 35 34 32
split_gain=1980.62 546.936 495.539 204.869 180.005 171.932 154.63 114.035 81.3965 97.5512 186.658 81.1845 119.921 72.0745 67.7438 60.8068 60.6601 72.8583 58.8352 58.5237 56.9928 56.7467 52.8393 49.8833 46.5353 45.6965 82.2459 51.7318 50.9052 45.8122
threshold=0.065387623981191537 1.7340725997602144 0.86637451637621699 3990.4966383712758 -0.038216546019618242 13.200207042177878 -41.722548992621789 14688.224269259126 -27.627622065183569 -0.058502543478153736 -0.082474135756330377 -0.066202176806345089 -0.10604072905664098 -257.76944959389078 0.059318524171021104 2.4478596824909586 -0.094513013673756988 -0.10912918235600789 -0.13063025888367821 -0.015384500102592649 1.0000000180025095e-35 211.12361482812776 -0.057250482495635989 17902.790856989926 3.1427787409549022 1377.1374114990238 1.3426538251077693 28.725225195952934 1.5413199666026272 5.9279319526004732
decision_type=2 2 2 2 2 2 2 2 2 2 2 2 2 2 2 2 2 2 2 2 2 2 2 2 2 2 2 2 2 2
left_child=1 15 3 5 -3 19 11 24 9 16 -11 -4 -13 20 -15 -1 17 -8 -19 23 -7 25 -12 -2 -6 26 27 -5 -28 -27
right_child=2 4 6 21 7 13 8 -9 -10 10 22 12 -14 14 -16 -17 -18 18 -20 -21 -22 -23 -24 -25 -26 29 28 -29 -30 -31
leaf_value=-0.06734613760501211 0.017913343475257634 0.048909729984068041 0.027372312275299005 0.010012934523555957 -0.031169276137065528 0.063310761116110656 0.0068563261884546593 -0.0053273506074238974 0.0090052647404294875 0.080674587819008964 0.042746505817902763 0.11346529716019836 0.037389463024710454 0.0053223318288302957 -0.0024361351824243173 -0.042826693534371643 -0.00049146488188104816 0.081494070110157982 0.028050398252086869 -0.01242374963261415 0.0065882841312703434 -0.0080030292657748241 0.019356636047479649 -0.0059753798382799986 -0.019909700355527384 0.0082638403023586708 0.043296546618771914 0.043180128161902719 0.0059404102035663948 -0.020822074679136045
leaf_weight=676.69446310400963 310.39778488874435 95.821675315499306 274.48365615308285 2165.1821504980326 1474.4005654007196 85.66330099105835 430.06378671526909 1011.9912194311619 2340.7099761962891 161.31895036995411 302.43614104390144 87.507068365812302 126.95366488397121 6313.8695626556873 5075.1454393565655 403.70277866721153 593.19242209196091 62.505398482084274 292.40927636623383 3383.1035753935575 91.677744925022125 409.88678368926048 1197.5680505037308 738.34913495182991 2430.1660023629665 2698.7265696227551 376.69302779436111 124.31570056080818 120.32741722464561 142.53037019073963
leaf_count=3443 1444 425 1239 9994 7101 389 1965 4781 10768 708 1372 373 573 29271 23659 1991 2725 278 1328 15903 418 1907 5476 3460 11604 12446 1732 572 554 656
internal_value=-8.97359e-05 -0.025917 0.00554939 0.00211072 -0.018962 -0.00085099 0.0184599 -0.0202847 0.0160134 0.0214103 0.0295688 0.0453814 0.0684309 0.00235754 0.00186502 -0.0581842 0.0115756 0.0206944 0.0374626 -0.0092247 0.0339877 0.00995846 0.0240726 0.00109497 -0.0241614 0.0112666 0.0158162 0.0118139 0.0342527 0.00680476
internal_weight=33997.8 6092.78 27905 22035.9 5012.38 15998.2 5869.15 4916.56 5380.2 3039.49 1661.32 488.944 214.461 11566.4 11389 1080.4 1378.17 784.978 354.915 4431.85 177.341 6037.66 1500 1048.75 3904.57 5627.78 2786.52 2289.5 497.02 2841.26
internal_count=158555 29345 129210 102405 23911 74544 26805 23486 24620 13852 7556 2185 946 53737 52930 5434 6296 3571 1606 20807 807 27861 6848 4904 18705 25954 12852 10566 2286 13102
is_linear=0
shrinkage=0.05


Tree=4
num_leaves=31
num_cat=0
split_feature=3 1 66 52 9 1 110 0 2 11 116 54 145 7 102 21 23 181 113 5 117 36 93 9 64 96 19 100 69 14
split_gain=1810.4 485.95 456.957 242.279 189.579 149.071 149.097 169.297 114.41 107.12 88.0393 68.5136 68.14 63.7104 59.2678 56.5642 52.8218 57.877 52.6535 50.0033 47.7636 46.4315 46.168 46.1437 43.5302 53.8839 52.0738 65.2218 50.3831 47.1838
threshold=0.056010217994179906 0.63150250649441686 1.7340725997602144 -9.1409800790493421 33505003.804392245 1.1431845470176085 -34.044240046646003 -0.05722349134192805 -0.082474135756330377 16.786278279289295 0.028059640562805358 18058381260.57629 2.1458985729029854 -174.34609030831095 1.0000000180025095e-35 0.82758620689655016 -478.57422814160117 227.7227752685547 26553.107301200766 -197.72495269486058 0.0039359310460369765 0.1551080411893215 327.25409751556373 15056048.246975711 2548893845.3278332 2775960.6691198428 1643.0017242431643 1.3426538251077693 0.58080839601075618 0.51761377106324313
decision_type=2 2 2 2 2 2 2 2 2 2 2 2 2 2 2 2 2 2 2 2 2 2 2 2 2 2 2 2 2 2
left_child=2 4 14 23 9 11 7 -7 -9 13 -5 -3 18 -2 -1 -11 17 -15 19 -8 -10 -19 24 -4 25 -6 27 -27 -29 -28
right_child=1 5 3 10 22 6 12 8 20 15 -12 -13 -14 16 -16 -17 -18 21 -20 -21 -22 -23 -24 -25 -26 26 29 28 -30 -31
leaf_value=-0.062894426433909092 0.041734300736882501 0.0065196977682377621 -0.013498152315661378 -0.026179418254585238 0.0021346127501952394 0.022474884570895332 0.04817535092277709 0.094727520850428681 0.053450488181144319 -0.0060696213095074864 -0.0087318360568851335 0.016250652252644514 0.067800418836906171 -0.024835471526613986 -0.033574039731707334 -0.016641926030716514 -0.0032510530833234188 0.01080382824576508 0.022934888295120037 0.0022999326019583623 -0.00020909464337223412 0.043501545448467967 0.0266609984855345 0.065316557109295917 -0.013648299034417388 0.01142068711748212 0.0063638337035290017 0.044609718976308249 -0.010141959274359616 -0.02448027881904432
leaf_weight=834.24549034237862 101.62128698825836 5907.2599491178989 22.981080591678619 3012.048024430871 5010.6897927671671 690.92225451767445 63.19072388112545 168.5121628344059 166.06774260103703 4771.5692215263844 951.38398841023445 2607.2236712872982 56.587958306074142 93.909004911780357 217.23302328586578 1721.6297355741262 1855.1392630189657 580.58865867555141 675.84240262210369 989.87306007742882 55.273977503180504 133.54553075134754 240.43504878878593 96.777489513158798 319.86109055578709 1359.6100090146065 802.92812536656857 277.02498534321785 49.529861360788345 146.6342479288578
leaf_count=4333 453 27176 108 14641 23220 3103 287 708 744 22465 4518 11887 254 441 1101 8188 8651 2684 3069 4522 248 616 1108 432 1474 6257 3701 1262 227 677
internal_value=-8.9036e-05 0.00478021 -0.0274434 -0.0198742 -0.000458593 0.0128196 0.0226824 0.0373398 0.0636843 -0.00536327 -0.0219913 0.00949942 0.0138101 0.00287893 -0.0568369 -0.0088728 0.00139629 0.0120659 0.012043 0.00505276 0.0400505 0.0169184 0.00507438 0.0501924 0.00442286 0.0051788 0.010966 0.01624 0.0363053 0.00160079
internal_weight=33980.1 28845.5 5134.67 4083.19 17464.7 11380.8 2866.27 1080.78 389.854 9258 3963.43 8514.48 1785.49 2764.8 1051.48 6493.2 2663.18 808.043 1728.91 1053.06 221.342 714.134 8206.71 119.759 7966.28 7646.42 2635.73 1686.16 326.555 949.562
internal_count=158555 133422 25133 19699 81424 51998 12935 4803 1700 43498 19159 39063 8132 12845 5434 30653 12392 3741 7878 4809 992 3300 37926 540 36818 35344 12124 7746 1489 4378
is_linear=0
shrinkage=0.05


Tree=5
num_leaves=31
num_cat=0
split_feature=3 66 1 52 51 110 1 0 60 116 140 2 51 90 0 2 49 130 0 2 1 21 102 23 13 5 25 58 182 10
split_gain=1739.68 487.769 442.473 195.391 169.711 144.435 118.48 146.593 115.972 113.752 87.657 81.7999 81.522 78.8314 65.1774 74.7716 56.9687 53.9222 53.4299 71.6738 48.941 45.554 44.2406 43.3152 43.296 41.975 51.2002 47.333 45.74 41.4952
threshold=0.066783033494139582 1.538339919898132 0.82872629239928275 -9.1409800790493421 3990.4966383712758 -34.560807527123735 1.5124291087610002 -0.10912918235600789 8.4253246225398133 0.028059640562805358 0.063631972341037027 -0.13063025888367821 42.229692155466282 142202.50000000003 -0.044847616124479579 -0.061461233394518845 -1.9459291730469257 25.422843018257051 -0.10912918235600789 -0.11652428433628238 0.2613522258351601 0.33333333333333109 14.285117009805932 583.93581738425507 16.637069414609901 -80.072877072195354 0.00012746843195037962 3.437223742545148 70.126062556367316 34162609.740753181
decision_type=2 2 2 2 2 2 2 2 2 2 2 2 2 2 2 2 2 2 2 2 2 2 2 2 2 2 2 2 2 2
left_child=1 22 4 24 8 6 14 -8 13 17 -10 -9 -12 29 -4 -16 -14 20 -7 -20 -5 -15 -1 -11 -3 26 -6 28 -27 -2
right_child=2 3 5 9 25 18 7 11 10 23 12 -13 16 21 15 -17 -18 -19 19 -21 -22 -23 -24 -25 -26 27 -28 -29 -30 -31
leaf_value=-0.061667558504157317 -0.0016329626141926021 0.057022520671760529 0.011635472893347806 -0.029993542270194396 0.040024333071306546 -0.0041302202608612523 0.017151468244354328 0.10075471338532134 0.0055674589960010941 -0.0099928402198638834 -0.02316976358345366 0.048458258691082619 0.019830800628823583 -0.003791661008822703 0.069334212963722622 0.022976980679615081 -0.0029145090366169699 0.0089503349953919172 0.056838794279872387 0.012832463199541492 -0.018053538871811225 -0.015740307924915427 -0.022882614883181635 0.023098724546631672 -0.018444277770241022 0.10799264780261693 -0.010654061290255572 -0.019170577362090716 0.010797924232467761 0.0206786823834272
leaf_weight=822.89910393953323 894.70294120907784 102.80795812606812 773.16858868300915 2251.3123853504658 56.189111679792404 460.07584071159363 213.26373986899853 132.39015102386475 6325.9246642887592 1209.2876134961843 473.70102095603943 171.81342785060406 297.00701519846916 1242.6784379184246 120.44199028611183 313.13030287623405 3765.1929875761271 117.65486864745617 94.548722878098488 4327.9263542741537 1386.9584543704987 2227.5582096427679 80.738837108016014 107.69505681097507 23.315547570586205 12.133094742894171 440.97316180169582 133.11599549651146 5156.3324591517448 271.66320250928402
leaf_count=4404 4139 452 3484 11080 257 2100 952 555 29279 5760 2236 747 1372 5843 521 1412 17596 567 420 19698 6732 10549 414 503 110 56 2048 611 23618 1262
internal_value=-0.000113627 -0.0242958 0.00517508 -0.0184026 0.00166826 0.0164795 0.0289201 0.0489355 -0.00106189 -0.019931 0.00176397 0.0712178 -0.0035405 -0.00768184 0.0203372 0.0358546 -0.00125149 -0.0243645 0.0120863 0.0137733 -0.0254419 -0.0114615 -0.0582022 -0.00728681 0.0430715 0.00896519 -0.00492641 0.0102679 0.0110261 0.00356374
internal_weight=34006.6 6102.67 27903.9 5199.03 21297.2 6606.76 1724.21 517.467 15498.4 5072.91 10861.8 304.204 4535.9 4636.6 1206.74 433.572 4062.2 3755.93 4882.55 4422.48 3638.27 3470.24 903.638 1316.98 126.124 5798.74 497.162 5301.58 5168.47 1166.37
internal_count=158777 30022 128755 25204 98866 29889 7671 2254 72276 24642 50483 1302 21204 21793 5417 1933 18968 18379 22218 20118 17812 16392 4818 6263 562 26590 2305 24285 23674 5401
is_linear=0
shrinkage=0.05


Tree=6
num_leaves=31
num_cat=0
split_feature=3 140 1 129 57 16 110 116 1 44 82 3 151 21 138 27 83 105 18 120 73 123 74 134 25 92 109 37 168 151
split_gain=1585.53 424.57 396.346 158.853 140.425 139.87 128.474 122.515 104.764 57.4587 57.4884 55.0392 51.7563 49.7502 49.411 48.7923 48.5938 52.5654 48.4247 48.143 44.8627 43.546 43.2401 42.4995 42.0799 41.5505 43.1515 40.9115 40.8217 40.6613
threshold=0.066783033494139582 0.65501163983989463 0.82872629239928275 -0.026315907547237147 236115.00000000003 13.200207042177878 -34.560807527123735 0.028059640562805358 1.5124291087610002 681.62159325912137 86607.710037605138 0.036592260672756387 0.073428277788508467 0.49999999999999972 1271562.1664513026 15.708738676247966 217612.3834806568 -133673249.99999999 6.2863302682061457 21084.358815655691 -0.67468747233560478 3435.4378651845627 2.3128768544038496 3242355.2627172545 1.5021311265377943 8.1544483070207114 -0.27993759666783014 0.22603836582237338 290.73418884277345 0.053448309500691661
decision_type=2 2 2 2 2 2 2 2 2 2 2 2 2 2 2 2 2 2 2 2 2 2 2 2 2 2 2 2 2 2
left_child=1 3 4 12 5 13 8 11 -4 10 -7 16 -1 -2 20 -6 17 -5 22 -3 21 27 -17 29 -9 26 -24 -12 -18 -8
right_child=2 19 6 7 15 9 23 24 -10 -11 14 -13 -14 -15 -16 18 28 -19 -20 -21 -22 -23 25 -25 -26 -27 -28 -29 -30 -31
leaf_value=0.01538553648299963 -0.0026193005494599352 -0.062907827698140101 0.019196691944083629 -0.0082666857180008681 0.061810848692357034 -0.0067588726440517893 0.011336836297107996 -0.0025198117596781622 0.04596027576368783 0.039913779881145424 0.010904985640177478 -0.018416168649309717 0.095374911352335598 -0.013009697575984852 -0.009535117980264754 0.009031149389052591 -0.037901405541915414 -0.036568162408446146 0.026628533869062665 0.093125958623609201 0.0034072223569116336 -0.039700865217158092 0.0085754932258658642 -0.00087834401869893864 -0.024196416657538466 0.037663964832025519 -0.029434226809056635 0.039636974290530307 -0.00061846854350646862 0.025958529519670155
leaf_weight=184.63594400882721 2256.7366075366735 639.70257626473904 1214.2036011964083 182.82233159244061 44.124628722667694 1629.2322521954775 3744.7550788223743 1022.9413625448942 523.21115580201149 100.65975257754326 346.94148653745651 1757.5299764722586 22.710056230425835 2353.4844464659691 696.52928958833218 3677.9564882963896 109.29254367947578 1599.2960235327482 356.71289226412773 4.9820158779621115 9260.4906256943941 31.077887535095215 119.13089482486248 613.2951602190733 286.62057763338089 41.981726780533791 200.07498380541801 192.71510782837868 223.68331342935562 544.62439759075642
leaf_count=852 10615 3556 5417 908 201 7643 16965 4874 2254 461 1606 8612 95 11182 3222 16807 549 8072 1613 26 42834 143 543 2788 1378 191 918 887 1100 2465
internal_value=-0.000111424 -0.0233546 0.00490699 -0.0187676 0.00158308 -0.00049941 0.0155733 -0.0204846 0.0272564 0.00229287 0.00198137 -0.0249552 0.0241466 -0.00792352 0.00333398 0.00949464 -0.0303889 -0.0336648 0.00896951 -0.061702 0.00424573 0.0178511 0.00740997 0.0114331 -0.00726412 -0.00909845 -0.0152486 0.0211654 -0.0128558 0.0131934
internal_weight=33982.2 6034.22 27947.9 5389.53 21307.8 16867.9 6640.09 5182.19 1737.41 12257.6 12157 3872.62 207.346 4610.22 10527.8 4439.98 2115.09 1782.12 4395.86 644.685 9831.23 570.734 4039.14 4902.67 1309.56 361.188 319.206 539.657 332.976 4289.38
internal_count=158777 30022 128755 26440 98866 78593 29889 25493 7671 56796 56335 19241 947 21797 48692 20273 10629 8980 20072 3582 45470 2636 18459 22218 6252 1652 1461 2493 1649 19430
is_linear=0
shrinkage=0.05


Tree=7
num_leaves=31
num_cat=0
split_feature=3 66 1 52 9 110 1 0 116 11 130 85 57 178 39 111 14 0 140 1 97 102 28 133 29 9 13 44 34 18
split_gain=1445.01 446.021 355.844 166.477 137.147 131.972 108.046 132.681 97.0473 95.602 48.6793 48.6188 48.1338 53.2334 48.1145 47.5682 50.9165 46.4889 68.527 44.2562 43.498 43.2628 42.1732 58.4544 52.3717 48.8871 46.9134 43.203 43.4318 40.0908
threshold=0.066783033494139582 1.538339919898132 0.69963543635614966 -9.1409800790493421 33505003.804392245 -34.297676486509118 1.5124291087610002 -0.10912918235600789 0.028059640562805358 16.786278279289295 32.685868847333246 -1.7981595317788048 5235.0000000000009 426666.45324331248 -0.091649131997325065 -3.7690649210587188 -0.032448276221463852 -0.045685267099389464 0.0027713907557036714 0.2613522258351601 48.878469619622351 14.285117009805932 2.2596384342737128 1466.9783153576716 -1.0717601864191348 57832778.973997883 41.398520623124639 495.94681694836902 -3.4664868728067764 -5.3454485336994484
decision_type=2 2 2 2 2 2 2 2 2 2 2 2 2 2 2 2 2 2 2 2 2 2 2 2 2 2 2 2 2 2
left_child=1 21 4 -3 9 6 17 -8 10 12 19 -9 -2 14 -14 -11 -17 -4 -19 -5 -7 -1 24 25 -6 -24 29 28 -26 -27
right_child=2 3 5 8 22 20 7 11 -10 15 -12 -13 13 -15 -16 16 -18 18 -20 -21 -22 -23 23 -25 27 26 -28 -29 -30 -31
leaf_value=-0.059527879372124774 -0.0058764746165236408 0.039456216657198874 0.0095949827469452853 -0.02766928581280333 -0.025672551689275361 0.0065479744857784477 0.013097139739727938 0.073297296430881245 -0.0066233420897661033 -0.010154579899190344 0.018573760449361727 0.025331081598287356 0.024304794932839609 -0.023869674779576168 0.0056864244583062478 0.012128255769128116 -0.0055732309808586601 0.058384617983885792 0.018767912409641034 -0.016291374571266035 0.014592109015523351 -0.020568371561962659 -0.0053066899817520363 0.0013501242027225318 0.031218786264996346 0.0095198713024193769 -0.0035395080247528354 0.024242932756244839 0.0024795469801848252 0.034989404351200119
leaf_weight=773.62876135110855 849.4419097006321 127.90943151712418 925.48120085895061 2215.7096158266068 154.30693486332893 4870.9327728450298 223.44874553382397 253.47420288622379 1309.3950514793396 4269.8907587230206 70.835333272814751 66.738816112279892 471.13765779137611 119.55256377160549 1316.9978285133839 548.29438510537148 1567.9300476610661 137.30511663854122 532.42401406168938 1391.314186424017 2565.7787258327007 78.486233472824097 174.33087673783302 818.81446415185928 134.04760994017124 210.46745701134205 136.32602916657925 248.71134069561958 6813.1277998238802 581.07445842027664
leaf_count=4404 3960 562 4145 11176 712 22105 979 1052 6263 20263 341 287 2171 556 6090 2592 7419 600 2379 6862 11615 414 805 3763 609 960 617 1128 31320 2628
internal_value=-0.000109086 -0.0224475 0.0046533 -0.0168682 0.00058792 0.0124713 0.0234166 0.0426664 -0.0183128 -0.0037572 -0.0224744 0.0633002 0.00402393 0.00843232 0.010592 -0.00711662 -0.000986938 0.0168561 0.02689 -0.0232806 0.00932332 -0.0559394 0.00487307 0.0114694 0.00314908 0.018987 0.0235514 0.00376712 0.00303408 0.0282172
internal_weight=33957.3 5967.28 27990 5115.16 18414.5 9575.58 2138.87 543.662 4987.25 9143.25 3677.86 320.213 2757.13 1907.69 1788.14 6386.12 2116.22 1595.21 669.729 3607.02 7436.71 852.115 9271.21 1921.01 7350.19 1102.2 927.868 7195.89 6947.18 791.542
internal_count=158777 30022 128755 25204 85593 43162 9442 2318 24642 43051 18379 1339 12777 8817 8261 30274 10011 7124 2979 18038 33720 4818 42542 8773 33769 5010 4205 33057 31929 3588
is_linear=0
shrinkage=0.05


Tree=8
num_leaves=31
num_cat=0
split_feature=3 6 1 9 48 3 2 40 11 0 2 0 2 21 79 57 109 0 2 0 109 61 122 96 151 7 62 1 5 0
split_gain=1316.81 392.805 323.656 152.953 147.298 109.268 103.317 99.8705 92.4679 89.6844 210.019 77.2414 126.631 65.961 59.6016 57.3594 47.2731 45.9728 110.792 46.5006 42.7569 41.3309 46.0246 43.5811 37.537 52.1443 36.0747 48.6758 38.2027 37.7552
threshold=0.066783033494139582 99.819521518646084 0.82872629239928275 33505003.804392245 5268.9805638480184 0.022430331140749372 -0.033561874817124596 222.23976188040157 16.297307283146264 -0.083672789565609099 -0.10204085391477934 -0.10310786815974365 -0.13063025888367821 0.66666666666665475 -0.035822107020511293 153350.00000000003 -0.40625448056048641 -0.045685267099389464 -0.05347908009833089 -0.025793207628391896 -0.59629582151752991 130.4876761949802 2731.3262116366082 59835.610305098504 0.017151291212017052 -257.76944959389078 -0.85569289092857548 0.49237350180029155 39.720341978296311 -0.0028240712893021816
decision_type=2 2 2 2 2 2 2 2 2 2 2 2 2 2 2 2 2 2 2 2 2 2 2 2 2 2 2 2 2 2
left_child=1 4 3 8 5 -1 -6 9 16 -4 -11 -9 -13 -10 17 -8 -2 -12 19 -19 -5 22 24 -24 25 -18 -22 -28 29 -29
right_child=2 -3 7 20 6 -7 15 11 13 10 14 12 -14 -15 -16 -17 21 18 -20 -21 26 -23 23 -25 -26 -27 27 28 -30 -31
leaf_value=-0.038533142281853811 -0.029744913894574676 -0.063456684535884364 -3.7900280207099507e-05 0.019250081811328947 0.05443706102044682 -0.018423505659297013 -0.01064484197700219 0.015755183196490125 -0.0024202323898481867 0.064852389283391501 0.0089693118243691066 0.097647632262600231 0.026844020289444694 -0.012345925468685529 0.0061577424142168343 0.034876041303410536 0.043463812674014737 0.032938532551812429 0.016509007935460743 0.070833206272783167 0.013459110025428503 0.059430643183720655 -0.042731843415453344 0.033238253066524885 0.015380718387942763 0.00087800668513197911 -7.8436470886766082e-05 0.0016894046609344246 0.02386553890043961 0.010557354585374542
leaf_weight=931.85030248761177 98.826941013336182 511.27699807286263 1204.6904891580343 534.8804318010807 66.479843124747276 2455.5094352066517 1864.8979158997536 269.54280237853527 4482.8537514060736 203.97928109765053 1002.4010141193867 101.61637212336063 166.81770247220993 2671.1695094406605 1892.6527484059334 71.869671002030373 74.627447620034218 200.72880584001541 1519.1796015799046 135.67179176211357 1071.4316956549883 34.988341972231865 88.718416094779968 23.98050557076931 775.14661936461926 1953.5419640094042 4395.4391328543425 2479.5566504299641 318.41086366772652 2326.320188254118
leaf_count=4946 465 3062 5401 2429 287 12305 9085 1189 21131 861 4498 415 736 12767 8522 337 328 876 6809 582 4866 161 414 111 3571 9046 20241 11292 1448 10596
internal_value=-0.000106675 -0.0215721 0.00441346 0.00140269 -0.0175995 -0.0239556 -0.0068519 0.0140023 -0.00301854 0.0121978 0.0151729 0.034662 0.0536469 -0.00612629 0.0130398 -0.00895565 0.00427135 0.0175973 0.0222582 0.0482216 0.00545747 0.00541052 0.00476235 -0.0265666 0.00602184 0.00244497 0.00476091 0.00378194 0.00709324 0.005982
internal_weight=33929.1 5901.88 28027.2 21329.9 5390.61 3387.36 2003.25 6697.28 10203.9 6159.3 4954.61 537.977 268.434 7154.02 4750.63 1936.77 3049.83 2857.98 1855.58 336.401 11126 2951 2916.01 112.699 2803.32 2028.17 10591.2 9519.73 5124.29 4805.88
internal_count=158777 30022 128755 98866 26960 17251 9709 29889 47994 27549 22148 2340 1151 33898 21287 9422 14096 12765 8267 1458 50872 13631 13470 525 12945 9374 48443 43577 23336 21888
is_linear=0
shrinkage=0.05


Tree=9
num_leaves=31
num_cat=0
split_feature=3 66 1 52 96 110 116 1 122 122 92 139 102 28 101 193 35 104 172 71 3 1 49 3 37 32 65 83 20 59
split_gain=1199.84 409.196 290.843 142.988 117.967 109.448 99.9063 98.4622 91.7158 118.222 73.4821 71.3601 70.8341 63.3152 64.0557 62.6259 58.3625 57.4739 54.8474 54.7431 53.9505 48.0474 47.4397 45.5584 45.4813 45.2066 46.4787 45.1217 42.777 55.3539
threshold=0.066783033494139582 0.96390876288867744 0.75851410228778293 -9.1409800790493421 2670792.9385654405 -30.775339620239674 0.029943889868338732 1.5124291087610002 844.19768440765426 912.8175710455555 0.32242531089464205 973.47916503906265 6.0522429412505625 0.010635541807215312 29476978.881421126 11.500000000000002 11.001235246553849 5327.4257556501079 17.500000000000004 -4.4156381847328534 0.042133437012120287 0.47421507072623642 -5.5098256380191897 2.6518249765806821 -0.0087252192005361131 -0.74981703667350386 8.7634311266477987 189501.35115017302 0.001967776448392649 -0.74671735632835456
decision_type=2 2 2 2 2 2 2 2 2 2 2 2 2 2 2 2 2 2 2 2 2 2 2 2 2 2 2 2 2 2
left_child=1 -1 4 -3 8 7 20 -4 10 11 15 24 -13 16 18 28 -11 -16 21 -12 27 22 -15 25 -10 -7 -27 -5 -2 -30
right_child=2 3 5 6 -6 23 -8 -9 9 13 19 12 -14 14 17 -17 -18 -19 -20 -21 -22 -23 -24 -25 -26 26 -28 -29 29 -31
leaf_value=-0.060436653256221599 -0.0037869084012568475 0.035223738033231686 0.014568398131611643 -0.029249348419879879 0.0083505361718223866 -0.00055401103539985739 -0.0054392496737172263 0.035414824712211433 0.027907276489708456 0.011010299119682024 0.0084112598019664541 0.026455926118543957 0.085646747559588815 0.029431567586243736 0.022455220022518846 -0.011608440751898257 -0.003940883937859691 -0.0028678656569915946 0.020783820290207228 -0.017378103471747824 -0.014052781473670695 -0.00069692583692989901 -0.013545929466441113 -0.0089536302553093298 -0.0062510201634635113 0.010449377325347885 0.043961881700107105 -0.010596829800446517 -0.032977196924677654 0.0087758666274433406
leaf_weight=583.86164398491383 2159.7639519423246 131.22086220979691 2610.2584765702486 2012.2450453042984 4208.6337974965572 1007.0759651511908 1264.8573004156351 723.41111835837364 150.05283343791962 2014.8062083721161 236.78039091825485 362.04945360124111 58.745734378695488 66.300013363361359 418.54004706442356 1345.3657270818949 965.4937497228384 482.22935739159584 183.49880500137806 1571.3371459394693 1459.7621984779835 1601.9134542495012 2036.4172583222389 394.78753224015236 277.97989258170128 3346.9831452220678 106.76214975118637 386.50429685413837 83.399339810013771 1647.1111763864756
leaf_count=3587 10206 571 11592 10514 19080 4540 6096 3084 692 9317 1110 1630 265 304 1923 6352 4473 2209 852 7429 7289 7385 9536 1780 1298 15086 478 1965 394 7740
internal_value=-0.000104275 -0.0207265 0.00418664 -0.0163141 0.000918681 0.012116 -0.0176341 0.0190921 -0.00107841 0.00238075 -0.00531068 0.0200979 0.0347193 0.000445052 -0.00311575 -0.00230953 0.00616674 0.00889844 -0.0058991 -0.0140009 -0.0216317 -0.00722076 -0.0121908 0.0073265 0.00572365 0.00876731 0.0114853 -0.0262439 0.000906292 0.00676364
internal_weight=33898.1 5838.45 28059.7 5254.59 19870.4 8189.28 5123.37 3333.67 15661.8 8618.03 7043.76 848.828 420.795 7769.2 4788.9 5235.64 2980.3 900.769 3888.13 1808.12 3858.51 3704.63 2102.72 4855.61 428.033 4460.82 3453.75 2398.75 3890.27 1730.51
internal_count=158777 30022 128755 26435 92195 36560 25864 14676 73115 39884 33231 3885 1895 35999 22209 24692 13790 4132 18077 8539 19768 17225 9840 21884 1990 20104 15564 12479 18340 8134
is_linear=0
shrinkage=0.05


Tree=10
num_leaves=31
num_cat=0
split_feature=3 1 66 52 1 87 0 2 183 102 126 2 103 9 0 24 78 8 171 60 84 20 103 95 10 56 13 71 95 150
split_gain=1105.63 311.827 300.858 144.887 111.196 100.096 93.1221 309.636 75.9249 74.1653 69.8181 66.3054 66.1138 65.431 54.6861 54.3417 52.4109 51.4172 50.2783 52.6189 45.9352 55.5554 45.184 42.7349 42.6811 55.5731 42.6636 50.9605 43.7921 46.0304
threshold=0.044754954295877593 0.49237350180029155 0.96390876288867744 -8.3252122681615095 0.96041144497905206 145.80680153677136 -0.10310786815974365 -0.13063025888367821 1.0000000180025095e-35 106.22565317306031 51.781554789514608 -0.10204085391477934 421.6245643326713 38310527.199366383 -0.056002409608994684 -2105586.7867129166 0.12243669964041745 0.35337201315828043 0.516854071625929 16.811245261659639 0.13898293476497889 -6.9915344336603011 306.52489818529614 0.1770625553809296 1389361230.9762652 852.86734395129804 26.556894995962114 -9.2906894374135387 0.0099719045575168766 0.6562300858154605
decision_type=2 2 2 2 2 2 2 2 2 2 2 2 2 2 2 2 2 2 2 2 2 2 2 2 2 2 2 2 2 2
left_child=2 5 -1 -4 13 20 -6 -8 10 24 -7 14 17 15 -9 16 -3 -10 -13 -20 21 -2 -21 -24 25 -5 27 -17 29 -29
right_child=1 4 3 9 6 8 7 11 12 -11 -12 18 -14 -15 -16 26 -18 -19 19 22 -22 -23 23 -25 -26 -27 -28 28 -30 -31
leaf_value=-0.059289312748044935 0.016406259254345572 -0.0089155628528086624 0.030725443022507844 -0.022873707182279556 -5.8711698133032837e-05 0.0058204389177850674 0.082005990361155176 0.025220761473372252 -0.00020238750757955212 -0.0027885749360971731 0.03842354982365264 0.0085361512016988595 0.036408866706666897 0.00832423996987274 0.075411195129504976 0.076920357314632537 0.011162715613134963 -0.014729900711746905 0.0037101162332859906 -0.018745500230144388 -0.016063862987270198 -0.0072350666288794052 0.025820404324022724 0.056346404467627946 -0.0081077392400974255 -0.040709192732448073 -0.0031085998039565546 0.017743725700856996 -0.00058510240499113134 -0.013549559253199481
leaf_weight=558.57359850406647 271.59960994124413 1747.8199657052755 137.15287208557129 1766.2321059852839 923.88486579060555 563.48419813811779 178.08741874992847 238.7931019961834 6931.910407781601 441.21858778595924 231.73737177252769 2374.790320083499 116.91380134224892 6970.6875780969858 70.234499052166939 27.506842464208603 399.26526008546352 667.73792140185833 273.32069827616215 44.804640099406242 1408.4612548798323 2921.4842678457499 471.74818930029869 151.46352456510067 331.11046580970287 580.23086181282997 1037.3688225597143 1093.1508603990078 813.60824225842953 131.66603723168373
leaf_count=3560 1291 8179 601 9212 4102 2629 725 1040 32415 2168 1049 10539 535 31478 286 126 1864 3150 1219 200 6738 13967 2085 666 1706 3078 4783 5048 3759 610
internal_value=-2.9125e-05 0.00318855 -0.025387 -0.0195709 0.00766791 -0.00260076 0.0141798 0.0176387 0.000611147 -0.0217828 0.0153214 0.0144766 -0.0009048 0.00514908 0.0366278 0.000933582 -0.00518187 -0.00147884 0.0124123 0.0221911 -0.00854203 -0.00522417 0.0297527 0.0332394 -0.0249127 -0.027284 0.00516469 0.00931896 0.00840674 0.0143797
internal_weight=33876 30061.5 3814.52 3255.94 16948.2 13113.3 4727.13 3803.24 8511.78 3118.79 795.222 3625.15 7716.56 12221.1 309.028 5250.39 2147.09 7599.65 3316.13 941.337 4601.55 3193.08 668.016 623.212 2677.57 2346.46 3103.3 2065.93 2038.43 1224.82
internal_count=158808 138483 20325 16765 76709 61774 20862 16760 39778 16164 3678 16035 36100 55847 1326 24369 10043 35565 14709 4170 21996 15258 2951 2751 13996 12290 14326 9543 9417 5658
is_linear=0
shrinkage=0.05


Tree=11
num_leaves=31
num_cat=0
split_feature=3 1 66 52 16 140 60 0 2 116 19 54 39 116 72 125 95 50 139 139 95 59 0 56 71 116 123 89 45 36
split_gain=1011.54 290.964 278.725 135.362 112.861 104.778 86.1946 78.7078 152.974 71.9621 67.5918 64.534 56.9359 51.7055 57.0161 49.1214 44.8377 44.2964 44.2221 67.5796 57.9828 44.0067 43.426 42.9299 41.6252 40.3629 38.548 38.5031 56.8937 37.3991
threshold=0.042133437012120287 0.48318854330169714 0.96390876288867744 -8.3252122681615095 14.961081950683674 0.0048122293403024038 9.2049093349137383 -0.048474679131303405 -0.067907880634622234 0.021083810719435946 981.43112670898449 2544424471864.2729 -3.9412852283847863 0.0263273964393211 81458711946334.812 -0.26115294833944275 -0.027059038272002959 -0.0050451329958535089 980.43563049316424 980.44602966308605 -0.010290977973146265 0.12287180623651532 0.059701195459730773 4291.0021392893404 -1.0000000180025095e-35 -0.53434001056010072 1693.9756772530482 0.062464283868967234 4.5647630956098366 0.022165576992000998
decision_type=2 2 2 2 2 2 2 2 2 2 2 2 2 2 2 2 2 2 2 2 2 2 2 2 2 2 2 2 2 2
left_child=2 4 -1 -4 13 7 11 -3 -9 22 18 17 15 14 16 26 21 -7 27 20 -20 -2 -5 -8 -25 -13 -12 -6 -29 -21
right_child=1 5 3 9 10 6 23 8 -10 -11 12 25 -14 -15 -16 -17 -18 -19 19 29 -22 -23 -24 24 -26 -27 -28 28 -30 -31
leaf_value=-0.058483667260708305 -0.0094445372916421161 0.010363689569898226 0.029153057876099644 -0.026705699061925367 -0.0068106713021549485 -0.0098710855812745441 0.0053968817854999386 0.065090057632504181 0.016314548442568994 -0.0073607228230517492 -0.016008545319651749 -0.063689117205146986 -0.0029069328185973489 -0.0025711612285512797 0.052865777950555227 0.0034530484750334429 -0.017097221207522665 0.0019644722025627449 0.058564733260254902 0.03525981695283157 0.016498027164054858 0.018698319803115728 0.059138745344644174 0.0059000136653565172 0.0161211558697891 0.055426462464457142 0.061911776408500707 0.060068797714105115 0.0071779234752734448 -0.011348861945324902
leaf_weight=538.46508005261421 649.17383974790573 1620.0262720733881 136.9466148018837 2170.8056861311197 515.06944045424461 1237.96012622118 7352.3114673197269 219.54279887676239 600.29068070650101 667.01934872567654 19.496316194534302 7.9055680185556403 5325.386208191514 2198.3082826137543 32.866409316658974 160.95735928416252 2186.4522060453892 2187.4282982051373 147.44099089503288 56.981428876519203 184.31695085763931 176.71975137293339 14.832792088389395 1727.8310898095369 2352.0190934091806 70.840362772345543 85.389679178595543 53.646699115633965 973.32264250516891 175.90607705712318
leaf_count=3560 3164 7152 595 11598 2407 5742 33257 923 2721 3309 88 35 24919 10431 152 735 10702 10083 655 262 823 853 75 7753 10556 313 388 245 4502 810
internal_value=-3.02793e-05 0.00291842 -0.0253692 -0.0194049 -0.00275738 0.00714566 0.00557642 0.0167522 0.0293761 -0.021736 0.00109631 -0.00128418 -0.00177961 -0.00841491 -0.0126334 0.0208029 -0.0133481 -0.00231298 0.00872911 0.0207007 0.0351935 -0.0034227 -0.0261231 0.0076793 0.0117925 0.0434681 0.0474279 0.00434552 0.00994083 5.50522e-05
internal_weight=33845.7 30317.6 3528.07 2989.6 12941.4 17376.2 14936.3 2439.86 819.833 2852.66 7697.91 3504.13 5591.23 5243.52 3045.21 265.843 3012.35 3425.39 2106.68 564.645 331.758 825.894 2185.64 11432.2 4079.85 78.7459 104.886 1542.04 1026.97 232.888
internal_count=158808 139671 19137 15577 61136 78535 67739 10796 3644 14982 35834 16173 26130 25302 14871 1211 14719 15825 9704 2550 1478 4017 11673 51566 18309 348 476 7154 4747 1072
is_linear=0
shrinkage=0.05


Tree=12
num_leaves=31
num_cat=0
split_feature=96 16 60 82 16 2 149 162 40 116 25 82 168 193 154 22 12 24 90 161 13 50 23 132 10 133 106 81 43 11
split_gain=722.873 323.808 290.354 142.812 154.163 130.384 101.249 93.7246 73.1858 69.5132 64.8838 54.462 52.2214 59.7784 49.7512 49.6376 48.3817 49.4587 52.6156 47.7059 50.0789 45.4167 44.6601 54.923 45.477 43.9613 50.8485 42.8183 42.7033 43.4672
threshold=10740.718980773841 2.4478596824909586 15.555702269049668 3930379.00403918 7.8555917723026605 -0.054714597978329844 36.486537067386571 -0.018193138839355073 324.97845610204013 0.010148004302933522 0.11177276860238117 11058.990509574804 253.13934631347658 1.0000000180025095e-35 10.500000000000002 159.02734321000585 0.23786154102445903 1610392.9815780928 -525992.49999999988 0.081216968636851045 16.308981529482121 0.063737340104478832 -15737.829693644317 0.75966807373827072 3346307543.5463376 1466.9783153576716 -501640.34079740045 2435.3205797550504 -0.90274091646795263 334.02707619956811
decision_type=2 2 2 2 2 2 2 2 2 2 2 2 2 2 2 2 2 2 2 2 2 2 2 2 2 2 2 2 2 2
left_child=1 -1 3 4 15 6 8 11 -4 -9 14 -3 13 -6 25 -2 17 18 19 20 -14 -15 23 24 -18 -7 -27 -23 29 -24
right_child=2 7 5 -5 12 10 -8 9 -10 -11 -12 -13 16 21 -16 -17 22 -19 -20 -21 -22 27 28 -25 -26 26 -28 -29 -30 -31
leaf_value=-0.058640540658033515 -0.011936157879573119 0.082570632075235448 0.011329691259939566 0.0076073605513806934 0.032047704908737366 0.011320501411619341 0.043511133804531948 -0.025444332578610757 0.049018626117443585 -0.008998010193223242 -0.0027183187559920441 0.0064152034881375915 0.035355896866843019 -0.017996599756697929 -0.0023512966381559405 -0.033126065515426094 0.060197436368204627 -0.03713573550726755 -0.0051289857369582409 0.0444764431227503 -0.0084055098487859237 0.077980339261713022 -0.032401191425753033 0.091651214653114488 -0.013158575495573893 -0.025139764228334818 0.0053295959012182237 0.0070029942429286661 0.0064662743731605634 0.064174686714368101
leaf_weight=513.19446258246899 3437.3458431959152 26.589640989899635 2761.7330293953419 2631.6398865282536 243.87525270879269 4405.939094632864 301.97609108686447 1450.7229558676481 135.10833744704723 1153.2404394298792 2404.777542874217 200.51023596525192 91.619512811303139 174.0656525939703 1423.4795261472464 300.53454507887363 34.288939237594604 113.26788564026356 5212.7142450064421 95.035317584872246 228.22446046769619 26.134395614266396 122.87273445725441 31.645901873707771 55.046522662043571 140.89439415931702 4863.6779924035072 113.65891088545322 1109.5717974454165 12.871538430452345
leaf_count=3501 16875 127 12187 11863 1103 19912 1286 7729 569 5745 11191 951 425 799 6524 1609 157 532 24655 439 1054 117 572 148 256 640 22042 519 5220 61
internal_value=-3.13233e-05 -0.0220981 0.00239047 -0.00289161 -0.00531467 0.00690032 0.0159596 -0.0154739 0.0130875 -0.0181606 0.00471138 0.0153317 -0.00125477 0.0134777 0.00636052 -0.0136399 -0.00241091 -0.00442346 -0.00376505 0.013372 0.00412997 -0.0009516 0.00604536 0.035048 0.0149971 0.00767831 0.00447179 0.0202722 0.00322777 -0.0232437
internal_weight=33816.3 3344.26 30472 14034.4 11402.8 16437.6 3198.82 2831.06 2896.84 2603.96 13238.8 227.1 7664.89 557.734 10834 3737.88 7107.16 5740.86 5627.59 414.879 319.844 313.859 1366.3 120.981 89.3355 9410.51 5004.57 139.793 1245.32 135.744
internal_count=158808 18053 140755 66404 54541 74351 14042 14552 12756 13474 60309 1078 36057 2538 49118 18484 33519 27105 26573 1918 1479 1435 6414 561 413 42594 22682 636 5853 633
is_linear=0
shrinkage=0.05


Tree=13
num_leaves=31
num_cat=0
split_feature=3 66 1 52 16 1 0 2 102 19 21 39 0 2 78 0 68 23 3 28 137 78 82 10 47 2 0 28 92 72
split_gain=854.522 261.248 242.347 118.827 94.2206 91.3887 109.354 147.196 69.3384 58.8422 56.6567 51.33 48.821 181.079 45.9972 45.9216 42.3003 43.8182 53.2496 44.2047 47.6669 46.8378 53.7805 44.3056 44.1758 41.7496 94.3546 41.6786 41.5387 56.4627
threshold=0.042133437012120287 0.96390876288867744 0.48318854330169714 -8.3252122681615095 14.961081950683674 1.4253605000087834 -0.073764810475086609 -0.077569798826379974 129.32586424781985 981.43112670898449 0.9736842105263126 -2.248007679618349 -0.040991667304585845 -0.057250482495635989 -3.2160342289732662 0.026041620324282262 7.0016976692766431 517.67810883170637 0.97736287545401901 0.012326547909265914 8546575.9871875849 -0.044987932293849807 55101.752357526268 1422911227.4353945 2490.3778951738236 -0.10604072905664098 -0.10310786815974365 -0.085200139849092166 0.25322083082112984 662688350618383.25
decision_type=2 2 2 2 2 2 2 2 2 2 2 2 2 2 2 2 2 2 2 2 2 2 2 2 2 2 2 2 2 2
left_child=1 -1 4 -3 14 10 25 -8 -5 -6 12 27 -4 15 -2 -14 17 19 -19 20 21 23 24 -13 -23 26 -7 -11 -16 -30
right_child=2 3 5 8 9 6 7 -9 -10 11 -12 16 13 -15 28 -17 -18 18 -20 -21 -22 22 -24 -25 -26 -27 -28 -29 29 -31
leaf_value=-0.057051669335584879 0.039906130618418051 0.02736059333479008 0.0017134691066447759 -0.023103849290878647 0.0080669012232487888 0.0026460813640550719 0.064987665438487816 0.016311431603551012 0.001173723837590557 0.060710860376757936 -0.0034910058440281175 0.017469843035005993 0.038115707538251858 0.0069007473111327424 -0.0053246071190505787 0.1223857392879826 -0.032635612530121628 0.0026151079881549365 0.057134308640074211 -0.010561508207598337 -0.0084337520698582087 0.024688480084148222 -0.001906555148381517 0.086904329274373679 0.11968827228746085 -0.016340192570319795 0.053844589727815931 0.0097032151908210806 -0.017032343429333942 0.03570386629262786
leaf_weight=500.60682381689548 50.162633091211319 137.76791426539421 4024.0811917036772 2463.2299008071423 2114.9761954396963 510.96903483569622 235.47513671219349 456.21502947807312 333.98268808424473 44.971032917499542 1615.922420874238 65.742432400584221 369.06743122637272 9932.1141179203987 3653.8733731508255 16.906890243291855 118.25393883883953 1687.0815991163254 46.008974626660347 1957.8087078779936 665.69223044812679 90.194139674305916 496.93485547602177 35.316384434700012 14.158027306199072 169.47206796705723 109.22482530772686 365.84629172086716 1453.9241167753935 52.591545894742012
leaf_count=3560 235 595 18042 13328 9704 2237 962 1989 1654 200 7430 309 1602 45002 17729 72 555 7795 209 9283 3106 432 2337 168 68 744 455 1668 7105 233
internal_value=-3.22099e-05 -0.0236667 0.00264293 -0.0179724 -0.00254904 0.00648747 0.0183673 0.0328825 -0.0202051 0.000963595 0.00538469 -0.0017249 0.00638471 0.0082065 -0.00774192 0.041807 -0.00307481 -0.00238382 0.00406245 -0.00574295 0.00115293 0.0102393 0.00494584 0.0417347 0.0375776 0.00565306 0.0116629 0.0152869 -0.00820509 -0.0151914
internal_weight=33788.6 3435.59 30353 2934.98 12913.5 17439.4 1481.36 691.69 2797.21 7702.98 15958.1 5588.01 14342.2 10318.1 5210.55 385.974 5177.19 5058.94 1733.09 3325.85 1368.04 702.346 601.287 101.059 104.352 789.666 620.194 410.817 5160.39 1506.52
internal_count=158808 19137 139671 15577 61136 78535 6387 2951 14982 35834 72148 26130 64718 46676 25302 1674 24262 23707 8004 15703 6420 3314 2837 477 500 3436 2692 1868 25067 7338
is_linear=0
shrinkage=0.05


Tree=14
num_leaves=31
num_cat=0
split_feature=3 66 3 110 2 5 1 0 2 44 136 0 2 42 11 55 1 4 182 111 59 5 15 172 90 85 0 115 134 118
split_gain=781.468 252.995 224.065 124.956 89.3943 81.5378 81.0592 123.681 68.798 62.072 61.6127 59.2551 80.3621 47.0045 57.8203 62.282 59.9034 50.8739 54.845 49.3727 55.5993 47.1543 45.5802 42.7847 42.7482 41.0677 40.9754 39.8995 68.2728 39.8348
threshold=0.042133437012120287 0.96390876288867744 0.2002277690436535 -30.775339620239674 -0.035143726277781194 -70.443491206748845 1.5124291087610002 -0.11568831422413547 -0.13063025888367821 411.66821068971882 1.4063353204747993 -0.048474679131303405 -0.061461233394518845 150002.5001565167 -58.078030166550697 -0.026086493123568245 0.5008618438013922 0.10736286022494156 451.24855308957018 -4.1956804356856869 1.3002334102190078 -34.669326730002517 -0.33648127110462672 18.500000000000004 -3686472.4999999995 -0.44032509772745165 -0.046561115932114157 -85292871.838791624 292594.67285043484 1.3419245171543184
decision_type=2 2 2 2 2 2 2 2 2 2 2 2 2 2 2 2 2 2 2 2 2 2 2 2 2 2 2 2 2 2
left_child=1 -1 5 6 -3 24 11 -8 -9 13 -6 -4 -13 14 15 -7 19 18 -15 23 21 22 -21 -16 -2 -26 -10 28 -27 -19
right_child=2 4 3 -5 10 9 7 8 26 -11 -12 12 -14 17 16 -17 -18 29 -20 20 -22 -23 -24 -25 25 27 -28 -29 -30 -31
leaf_value=-0.056360232926085822 0.038035033736856544 0.040500760902049592 0.0033378154659844715 0.004016633334215358 -0.025950795038942254 0.069680888102036417 0.0024914199489771676 0.071958687493617626 0.01338486186293552 0.047481726219128072 -0.011225672591418514 0.042825443951583123 0.012142988918199007 0.053809416270684862 -0.012893375193105025 0.0072765427874030737 0.00457893882094012 0.0079993974486218845 -0.0069203894314066126 0.063969486338114487 0.038403633001659332 -0.005922493994592804 0.0069549255501387261 0.008229100343240604 -0.0017178447708248086 0.052061043870402848 0.049900989921708321 -0.018282704864060206 -0.0086652236341654785 0.031882777131757294
leaf_weight=481.88583128154278 45.670574858784676 65.513241872191429 1397.0585449039936 14397.287398457527 1418.2340626269579 53.5227180570364 271.76438538730145 156.4665724337101 157.18516263365746 67.18921110033989 1423.3043249994516 262.54764750599861 1140.2172413766384 39.000614762306213 2446.0538876652718 158.04988320171833 1741.4680777788162 1161.8128988742828 795.02710819244385 37.997042074799538 85.835690975189209 2005.646525323391 452.66532297432423 265.78896678984165 879.03869442641735 53.2000373005867 150.26428329944611 1585.3735399693251 356.05297948420048 205.46134044229984
leaf_count=3560 207 278 6170 65301 7931 252 1170 637 663 300 7368 1102 5047 182 11764 742 7990 5345 3678 181 409 9537 2174 1288 4216 248 623 7761 1744 940
internal_value=-3.2894e-05 -0.0228059 0.0025085 0.00608492 -0.0172438 -0.00264919 0.0145074 0.0292769 0.044968 -0.00040657 -0.0185751 0.0106266 0.0178857 -0.000747114 -0.00269078 0.0230633 -0.00346527 0.00565174 -0.00408056 -0.00611143 -0.00116303 -0.00252354 0.0113702 -0.0108232 -0.00995895 -0.0107217 0.0312319 -0.0146897 -0.000771232 0.0115884
internal_weight=33756.6 3388.94 30367.6 17932.8 2907.05 12434.9 3535.5 735.68 463.916 9515.52 2841.54 2799.82 1402.76 9448.33 7247.03 211.573 7035.46 2201.3 834.028 5293.99 2582.14 2496.31 490.662 2711.84 2919.34 2873.67 307.449 1994.63 409.253 1367.27
internal_count=158808 19137 139671 80713 15577 58958 15412 3093 1923 44782 15299 12319 6149 44482 34337 994 33343 10145 3860 25353 12301 11892 2355 13052 14176 13969 1286 9753 1992 6285
is_linear=0
shrinkage=0.05


Tree=15
num_leaves=31
num_cat=0
split_feature=66 3 72 110 119 1 48 1 14 9 8 56 20 185 83 62 3 184 59 25 80 41 130 52 4 86 7 3 11 95
split_gain=728.123 365.374 123.251 119.396 86.5715 75.2238 73.1643 86.5183 68.4193 64.7286 50.9747 60.0962 54.5753 48.7357 47.249 46.5278 43.4743 41.3099 40.3919 47.2876 42.5796 40.1666 39.5336 39.432 37.7145 36.8506 36.8445 41.8717 35.8143 36.339
threshold=2.1669103808419936 0.19170206475163801 96486794263.485825 -30.326938063744418 4.8155680162283492 1.4253605000087834 5268.9805638480184 0.28400686977470024 0.078188184078624462 5075334.8512512213 0.06796682217114676 364.86801893547494 -27.224819630503664 0.23809665660954243 -14912.156836228156 -0.073438748316193861 2.6518249765806821 -459.41859352680927 0.9539642410976048 0.019351395701654617 -0.13005522302725056 -3.1404706056467351 5.5751524331036348 -1.7516639326380081 1.1923860124350283 13.372164529668416 -152.60558041972578 0.075130837831825725 16.786278279289295 -0.066357608735769083
decision_type=2 2 2 2 2 2 2 2 2 2 2 2 2 2 2 2 2 2 2 2 2 2 2 2 2 2 2 2 2 2
left_child=4 2 6 5 -1 -3 7 -2 10 24 11 -8 -13 -9 -6 28 17 -5 20 -20 -11 -22 -7 25 -4 -24 27 -15 -14 -30
right_child=1 3 9 16 14 22 8 13 -10 18 -12 12 15 26 -16 -17 -18 -19 19 -21 21 -23 23 -25 -26 -27 -28 -29 29 -31
leaf_value=-0.058951834368845414 -0.021107229640995387 0.0099653405511581847 -0.018012107409754171 0.008914900724386261 0.069411498017061396 -0.0061699409471172488 0.019800681064020862 0.00081562655392261379 -0.010524989555228608 -0.0069121277369583265 -0.0061356139075856358 0.095081812705170743 0.090854907325426573 0.12131525430732755 -0.031327457139092588 -0.011105028435691291 -0.01042591161850151 0.0027979374571847873 0.0067399075427340615 0.059740146207805156 0.030628366235456419 0.0047096194135055093 0.039472122351870434 0.044343353514545387 0.066532093100188261 0.011477687578568464 -0.012110031002023861 0.0091647895080719938 -0.040067742643576931 0.017187316452087497
leaf_weight=394.15379396080971 1659.6271049976349 2949.2554657906294 442.66853766143322 3766.0373998433352 11.841725021600721 83.81827837228775 652.06689459085464 1217.5725516527891 1686.5871091932058 799.16362957656384 1001.7369925528765 14.629565015435217 14.513903126120566 9.6510970741510373 681.9156631231308 521.61241810023785 510.15561370551586 10333.032699793577 105.67217747867107 69.939925655722618 158.10844688117504 2738.4464315026999 182.89556716382504 298.52533796429634 13.596243336796759 329.04854539036751 2705.6922767013311 60.460203364491463 31.617767497897148 224.4041049182415
leaf_count=3068 8820 12977 2219 16905 66 360 3121 5839 8149 3719 4827 69 66 48 4044 2517 2279 47046 481 322 720 12755 768 1239 68 1402 13158 268 151 1082
internal_value=-7.01976e-07 0.00134292 -0.00470844 0.00597596 -0.0402393 0.0138171 -0.00781182 -0.0115121 -0.00276792 0.00231938 0.00254911 0.0085126 -0.00061083 -0.00752446 -0.0296079 -0.0023781 0.00391302 0.00443185 0.00441868 0.027848 0.00330537 0.00612439 0.0265199 0.0299007 -0.0154928 0.0214789 -0.0111827 0.0246027 0.014448 0.0101165
internal_weight=33668.4 32580.5 14127.8 18452.8 1087.91 3843.54 9800.17 5653 4147.17 4327.6 2460.58 1458.84 806.778 3993.38 693.757 792.148 14609.2 14099.1 3871.33 175.612 3695.72 2896.55 894.288 810.469 456.265 511.944 2775.8 70.1113 270.536 256.022
internal_count=158553 151375 68399 82976 7178 16746 48115 28133 19982 20284 11833 7006 3885 19313 4110 3816 66230 63951 17997 803 17194 13475 3769 3409 2287 2170 13474 316 1299 1233
is_linear=0
shrinkage=0.05


Tree=16
num_leaves=31
num_cat=0
split_feature=96 1 110 48 1 129 110 0 129 99 15 5 7 120 42 72 16 46 50 8 4 0 19 47 80 142 15 77 77 180
split_gain=578.967 247.843 243.991 108.452 93.3828 72.4447 69.5434 102.449 117.131 65.9228 73.7105 59.8627 50.3401 48.7596 48.2709 47.0758 46.4568 56.1388 46.0434 45.5148 44.7682 44.5161 42.6663 42.4233 41.9857 41.4302 41.4274 38.8041 38.5558 48.3882
threshold=9556.1674796809621 0.43182639493518171 -7.3857281466886127 5268.9805638480184 0.96041144497905206 -0.012936626937787798 -26.89151826770944 -0.05722349134192805 -0.085695705687648338 32.500000000000007 -0.026988351532297384 -111.18635651003326 -89.617928691789515 -7714522.2961988281 -357.08687768523265 3042340759.8160439 14.58982009818866 93.116041319055611 0.046762149807745838 -0.20357498875510113 4.009230165364472 -0.040991667304585845 981.43112670898449 -144284.7561004133 -2.6199089755265703 -1.4556166301765974 0.49652398308085172 0.0067853837385882113 0.0087239000564246025 -74.341782173375975
decision_type=2 2 2 2 2 2 2 2 2 2 2 2 2 2 2 2 2 2 2 2 2 2 2 2 2 2 2 2 2 2
left_child=2 3 5 15 11 -1 7 -6 -9 -7 -11 12 -3 14 -5 -2 -15 22 -14 20 -20 -13 -18 -24 -25 -12 -17 -10 29 -23
right_child=1 4 -4 13 6 9 -8 8 27 10 25 21 18 16 -16 26 17 -19 19 -21 -22 28 23 24 -26 -27 -28 -29 -30 -31
leaf_value=0.0047321101260674719 -0.015130632976643469 -0.045802605555151144 -0.057936587856630001 0.027697248321663939 0.007170952397965712 -0.020409126904876628 0.0030758940778520681 0.060766321181572769 0.028500775987664324 -0.048366929219422393 0.17254657556361586 -0.001387930187596635 -0.009954733011662921 -0.0063151381925934339 -0.041964897867787107 -0.0080697067074290332 0.012086509275574447 -0.014747697330401141 0.017903331817535825 -0.0014832685129338172 0.10427606009383848 0.012801634380825636 -0.017524399037929236 0.061661544672898499 0.0019721705111019954 0.046581152503572032 0.012368791938552118 0.011367962079854802 0.0094353492759224732 0.00087585405162909067
leaf_weight=376.29415059089661 2336.3921649307013 70.829070135951042 390.9753881841898 241.75540475547314 1641.6829253137112 2131.9575406312943 1611.4767659455538 200.71048454940319 648.82544127106667 17.789556011557579 8.478842079639433 2370.570194169879 1077.7584597766399 2700.7333065718412 27.718677192926407 1173.7854871451855 1131.5916863530874 451.20412461459637 235.07123421132565 682.19970954954624 16.02497211098671 1064.2857480049133 289.30417490005493 29.799192413687706 2596.0470671504736 28.365066155791283 314.32236735522747 673.60628928244114 4864.412472486496 4235.5394057482481
leaf_count=1860 11853 324 3140 1124 7119 11547 7161 836 2790 92 43 10681 5058 13208 136 5815 5164 2073 1092 3176 74 4832 1353 133 12078 140 1508 2896 22052 19195
internal_value=-2.82906e-06 0.00203233 -0.0211448 -0.00385631 0.00546133 -0.0155321 0.0115309 0.0158361 0.0251756 -0.0190194 0.0352137 0.00347796 -0.00437357 -0.000349826 0.0205317 -0.0107035 -0.0011315 0.00198095 -0.00291444 0.0052156 0.0234156 0.00478201 0.00384616 0.000647455 0.00264955 0.0755694 -0.00375263 0.0197738 0.006221 0.00327073
internal_weight=33639.5 30685.6 2953.86 11292.7 19393 2562.89 4776.3 3164.83 1523.14 2186.59 54.6335 14616.7 2081.88 7468.15 269.474 3824.5 7198.68 4497.95 2011.05 933.296 251.096 12534.8 4046.74 2915.15 2625.85 36.8439 1488.11 1322.43 10164.2 5299.83
internal_count=158553 141731 16822 54445 87286 13682 20802 13641 6522 11822 275 66484 9724 35269 1260 19176 34009 20801 9400 4342 1166 56760 18728 13564 12211 183 7323 5686 46079 24027
is_linear=0
shrinkage=0.05


Tree=17
num_leaves=31
num_cat=0
split_feature=66 3 72 190 119 52 13 110 9 1 5 40 83 45 55 3 9 100 31 60 14 117 48 47 65 150 61 145 93 74
split_gain=634.731 302.836 103.788 101.068 84.6972 65.9782 78.9522 57.4239 57.1038 56.5952 47.3188 46.0573 43.5184 41.7953 41.2183 40.9414 40.9406 46.4528 46.9344 38.0114 42.3105 49.0552 44.6405 45.3287 39.5064 37.3368 53.4838 50.1688 37.2113 48.9008
threshold=2.1669103808419936 0.19170206475163801 96486794263.485825 1.0000000180025095e-35 4.8155680162283492 0.084936275784617279 8.8537249825884672 -30.326938063744418 6860632.734919739 1.4253605000087834 -90.785352481052456 270.32109736190927 -10405.243087083871 5.8371848018510599 0.074552121373624006 2.6518249765806821 1872116.471011353 0.012905802626679529 -0.97876189323320484 9.7297456615562297 0.054544250284155958 0.042805654455061619 164095.98761985716 565892.03849688603 0.1109495792593528 -1.0000000180025095e-35 7.071226064070145 1.3527785868421025 83.103039313270301 0.004093387455539662
decision_type=2 2 2 2 2 2 2 2 2 2 2 2 2 2 2 2 2 2 2 2 2 2 2 2 2 2 2 2 2 2
left_child=4 2 5 7 -1 6 -2 9 -4 -3 -10 -5 14 -8 -6 19 -7 18 -18 20 22 24 -9 -24 -22 26 -12 -28 -21 -30
right_child=1 3 8 11 12 16 13 15 10 -11 25 -13 -14 -15 -16 -17 17 -19 -20 28 21 -23 23 -25 -26 -27 27 -29 29 -31
leaf_value=-0.057976601973851342 0.030063509774410579 0.0072257972413322094 -0.012274901893508279 0.01621652992117224 0.1181549800259873 -0.020235280471716327 -0.013533781777013455 -0.012349635351457149 0.040514641056438636 0.023915758468446471 0.027435730749112708 0.04663976551313772 -0.030204347600114714 -0.0017739954821613707 -0.027839221606131521 -0.010880267204747033 -0.022673502716493082 -0.014719984849657274 -0.00094463073973089721 0.0073749772913514469 0.0098205088291108238 0.020737610187343537 0.0017437003335138786 0.059094361728464884 -0.0068112280846633544 0.0079208131184185342 -0.0075066066680058996 0.032558982762085943 -0.0045529595166620565 0.006827286327715701
leaf_weight=362.89272580295801 174.31652854382992 2452.9838212579489 593.6105700135231 940.20773312449455 9.7679422050714511 1001.1345431655645 953.96006715297699 1103.9513911306858 88.642032846808434 640.57970656454563 137.88995732367039 143.37212324142456 655.71557152271271 3632.9031456708908 9.5723715424537641 500.37166614830494 287.36025387048721 1848.0451733022928 1838.5427198410034 6741.3016596436501 608.62981428205967 356.37185434997082 338.456676825881 38.358480647206306 863.80095958709717 2085.8800493776798 1342.6952744275331 82.959831222891808 1875.3595300316811 1900.6418936997652
leaf_count=3068 789 10769 2985 4091 54 5216 4887 5123 404 2684 669 604 4000 17578 56 2240 1440 9135 9070 30305 2799 1617 1552 170 3943 9650 6201 375 8513 8566
internal_value=-4.68551e-06 0.00122188 -0.00430744 0.00542554 -0.0384962 -0.007172 -0.00296458 0.00450396 0.00213122 0.0106818 0.00441894 0.0202419 -0.0280241 -0.00421976 0.045896 0.00317004 -0.0111985 -0.00892196 -0.00388174 0.0036785 -0.000994888 0.00409219 -0.00727762 0.0075818 6.35066e-05 0.0035422 -0.00229919 -0.00517516 0.00514911 0.00117526
internal_weight=33610.3 32572.3 14067.9 18504.4 1037.95 9736.26 4761.18 17420.8 4331.68 3093.56 3738.07 1083.58 675.056 4586.86 19.3403 14327.2 4975.08 3973.95 2125.9 13826.9 3309.57 1828.8 1480.77 376.815 1472.43 3649.43 1563.55 1425.66 10517.3 3776
internal_count=158553 151375 68399 82976 7178 48115 23254 78281 20284 13453 17299 4695 4110 22465 110 64828 24861 19645 10510 62588 15204 8359 6845 1722 6742 16895 7245 6576 47384 17079
is_linear=0
shrinkage=0.05


Tree=18
num_leaves=31
num_cat=0
split_feature=66 1 48 1 119 0 2 48 2 1 21 14 1 8 116 23 70 171 83 119 29 74 10 37 103 25 97 19 5 96
split_gain=588.12 252.937 139.188 89.7241 84.6373 65.2043 197.247 61.3401 55.3173 46.0479 43.888 43.1443 56.5741 51.7491 53.8747 42.1993 42.1763 41.4881 39.5268 38.9534 42.9371 41.0775 38.4372 37.7578 43.9727 37.5878 37.2982 38.8584 36.3971 37.9133
threshold=2.1669103808419936 0.41548359048608485 5268.9805638480184 0.96041144497905206 4.8155680162283492 -0.083672789565609099 -0.10604072905664098 197469.40652302906 -0.077569798826379974 0.25535129557726716 0.49999738421214562 0.068692525170571131 0.24062661326466714 0.10079872321468587 0.068956568306089636 17730.650590453177 -1.2611673052764962 1.0000000180025095e-35 -10405.243087083871 1.0000000180025095e-35 1.8584655677155928 -4.8754267537337386 1102954043.7596934 -0.38701279618237966 56.925815120562099 0.84582341263894589 48.652848598395956 2476.2075000000004 -111.18635651003326 6472.2803854788608
decision_type=2 2 2 2 2 2 2 2 2 2 2 2 2 2 2 2 2 2 2 2 2 2 2 2 2 2 2 2 2 2
left_child=4 2 9 7 -1 -5 -7 10 -4 -2 26 13 -13 16 -15 17 -10 -12 -6 20 -8 -21 -20 -18 -25 -24 -3 -28 -19 -30
right_child=1 3 8 5 18 6 19 -9 11 -11 15 12 -14 14 -16 -17 23 28 22 21 -22 -23 25 24 -26 -27 27 -29 29 -31
leaf_value=-0.057527934399285399 -0.0188726627922969 5.5392994189305101e-05 0.057989014421925361 0.0013921843108513046 0.042540664010623293 0.056513074873362802 -0.0010272251192105803 0.0072765508530867251 0.036123809685175437 -0.0080673366851052083 0.053186223193814552 -0.013735910918108746 6.5076116024618785e-05 -0.019605169016231633 0.0008264653892393368 0.024712811304154515 -0.018511806797307535 -0.011575859923356368 -0.034184675456404974 -0.020723819513045826 0.06202023963487388 0.015264305452961105 -0.0099891555146848082 0.022406201957673233 0.004087032755742878 0.095953623480597619 0.011075963448669755 -0.0080324654792696005 -0.030618257937621157 -0.00068808201257869938
leaf_weight=347.81814802438021 1454.2986331731081 2858.3110564053059 40.311836883425713 1395.4829683899879 19.779113292694092 255.08974167704582 763.52131091058254 4998.6066223680973 121.86671297252178 3061.9537230730057 32.440978899598122 1197.212704628706 1955.4119702577591 412.05592657625675 1486.8286192566156 138.96224018931389 147.71327082812786 1115.5097812563181 552.83739803731441 82.141360580921173 27.994724631309509 2285.1781760901213 82.078254535794258 406.50554248690605 1687.0895515531301 9.3232979178428632 2030.2926684170961 306.17981807887554 108.54139006137848 4199.5736219882965
leaf_count=3068 7939 13060 167 6078 110 1054 3353 22420 564 15291 151 5850 9151 2034 6936 613 704 5312 3464 361 121 9894 483 1996 7954 53 9267 1378 534 19193
internal_value=-6.42228e-06 0.00115987 -0.00461995 0.00451905 -0.0375473 0.0104982 0.0142203 0.00269771 -0.000423641 -0.0115468 0.000576467 -0.000741216 -0.00517586 0.00253907 -0.00360718 -0.00249622 0.00747777 -0.00318922 -0.0270812 0.010805 0.00120267 0.0140156 -0.0292187 0.0059202 0.007644 0.000817402 0.0038859 0.00857193 -0.00352642 -0.00144216
internal_weight=33580.9 32569.1 11971.2 20597.8 1011.84 4809.41 3413.93 15788.4 7455 4516.25 10789.8 7414.68 3152.62 4262.06 1898.88 5595.03 2363.18 5456.07 664.018 3158.84 791.516 2367.32 644.239 2241.31 2093.6 91.4016 5194.78 2336.47 5423.62 4308.12
internal_count=158553 151375 58586 92789 7178 20861 14783 71928 35356 23230 49508 35189 15001 20188 8970 25803 11218 25190 4110 13729 3474 10255 4000 10654 9950 536 23705 10645 25039 19727
is_linear=0
shrinkage=0.05


Tree=19
num_leaves=31
num_cat=0
split_feature=66 1 48 119 1 0 2 48 2 21 111 46 14 23 70 56 173 21 79 0 2 23 149 106 83 113 44 1 183 10
split_gain=544.944 228.372 126.628 84.489 80.7484 59.3837 197.854 55.1702 50.2349 42.8743 41.0117 46.5415 47.6389 48.5439 43.8129 44.8812 39.9813 39.588 38.0735 47.4993 80.9811 37.8611 37.7271 36.707 36.2594 35.4951 43.894 35.4627 34.8844 34.8711
threshold=2.1669103808419936 0.41548359048608485 5268.9805638480184 4.8155680162283492 0.96041144497905206 -0.10912918235600789 -0.11652428433628238 197469.40652302906 -0.032863847807755593 0.94117647058823217 -11.391758888302425 93.538386505343567 0.078188184078624462 1493.5978882861973 -0.030521623761453408 64450.997184316097 -0.50237384814443453 0.49999738421214562 -0.036673874861120094 -0.044847616124479579 -0.051097283772152745 17730.650590453177 1.8182503864974893 -145219.73755991622 -14912.156836228156 946.06457702181376 -25.431875546796224 0.24062661326466714 1.0000000180025095e-35 1102954043.7596934
decision_type=2 2 2 2 2 2 2 2 2 2 2 2 2 2 2 2 2 2 2 2 2 2 2 2 2 2 2 2 2 2
left_child=3 2 9 -1 7 -6 -7 17 23 -2 -10 12 14 27 15 -12 -15 -3 19 -8 -21 22 -19 -4 -5 26 -16 -14 -9 -26
right_child=1 4 8 24 5 6 18 28 10 -11 11 -13 13 16 25 -17 -18 21 -20 20 -22 -23 -24 -25 29 -27 -28 -29 -30 -31
leaf_value=-0.057107667829911057 -0.0084912798434404937 0.0036862040664579275 0.063101097288454561 0.057430683090636737 -0.0021855934145446634 0.050164781168779662 0.0055320530987934807 0.017270765690335393 0.016215207924530694 -0.020424321202826771 0.012033017431479184 -0.015606152621657328 -0.016571295057499529 -0.044487571054929523 -0.027709574214171806 -0.036440841582204203 0.015641427753620034 0.054072194822219692 0.0019998601000374501 0.042028290812431868 0.012429193312216409 0.023300426683796758 -0.003337327118140557 0.012274899415956698 -0.032589054240206652 -0.0025123529929896916 0.03783501503643788 -0.0035590016515179585 0.0052182520997241357 0.0007624476874162683
leaf_weight=333.22792042046785 3534.9869323968887 5201.7655373066664 47.488429456949234 12.717855781316755 833.15086187422276 320.49887025356293 1169.1774694919586 697.45097506046295 327.86088234186172 956.36622992157936 1275.5997329056263 567.21541585028172 877.57627432048321 30.086594685912132 33.054776474833488 49.608817756175995 340.77217163145542 28.768945947289467 1223.7252248674631 303.5356268286705 968.09597207605839 139.98896831274033 5420.3733978569508 140.98840318620205 549.10300835967064 2351.4672460705042 112.39889311790466 1298.1437834352255 4312.998797878623 91.423519417643547
leaf_count=3068 18200 23705 198 66 3641 1335 5073 3089 1500 5030 6021 2693 4367 137 162 237 1546 131 5366 1255 4191 613 25059 637 3508 11162 553 6143 19331 536
internal_value=-7.95839e-06 0.00110117 -0.00440057 -0.0366199 0.00428798 0.00995433 0.0124924 0.00256019 -0.000403773 -0.0110322 -0.00106504 -0.00188188 -0.000659552 -0.0059574 0.00287026 0.0102184 0.0107634 0.000546999 0.00919761 0.0128063 0.0194944 -0.00237464 -0.00303423 0.025081 -0.0261688 -0.00102968 0.0229398 -0.00880751 0.00689595 -0.0278287
internal_weight=33549.6 32563.1 11943.6 986.472 20619.5 4818.18 3985.03 15801.3 7452.26 4491.35 7263.78 6935.92 6368.71 2546.58 3822.13 1325.21 370.859 10790.9 3664.53 2440.81 1271.63 5589.13 5449.14 188.477 653.244 2496.92 145.454 2175.72 5010.45 640.527
internal_count=158553 151375 58586 7178 92789 20861 17220 71928 35356 23230 34521 33021 30328 12193 18135 6258 1683 49508 15885 10519 5446 25803 25190 835 4110 11877 715 10510 22420 4044
is_linear=0
shrinkage=0.05


Tree=20
num_leaves=31
num_cat=0
split_feature=66 1 48 119 140 60 42 1 0 2 2 24 82 82 0 2 12 62 33 111 164 46 35 34 64 111 174 38 42 144
split_gain=482.04 200.631 102.668 90.5855 76.5678 64.5316 61.5605 51.7875 49.558 97.9143 47.0059 45.9775 50.3215 45.677 51.1991 102.688 43.133 41.5937 40.5194 38.2321 38.107 36.4434 35.5152 45.0652 35.1567 34.1001 33.9516 42.2 53.7832 39.2879
threshold=2.1669103808419936 0.41548359048608485 5268.9805638480184 4.8155680162283492 0.0048122293403024038 8.5500823116003648 790094.98572531028 0.25244346203903406 -0.049453945836432874 -0.067907880634622234 -0.077569798826379974 13980.053763532394 22797.595213761913 94672.496576242978 -0.040991667304585845 -0.05347908009833089 0.16434143526438377 -6.5085904525889555 13.855074095165753 -10.87929964152293 5.5000000000000009 93.538386505343567 22.634732841517124 -4.964145554069967 -1704567.3489692193 -19.662159604256178 0.084049772978918594 -630326316.45427763 -125705.43182608557 -0.57223632477365283
decision_type=2 2 2 2 2 2 2 2 2 2 2 2 2 2 2 2 2 2 2 2 2 2 2 2 2 2 2 2 2 2
left_child=3 2 7 -1 8 6 16 17 20 -10 -4 -5 -13 -7 -15 -16 24 -2 19 -12 -3 -21 23 -17 -6 -26 27 28 29 -18
right_child=1 4 10 11 5 13 -8 -9 9 -11 18 12 -14 14 15 22 26 -19 -20 21 -22 -23 -24 -25 25 -27 -28 -29 -30 -31
leaf_value=-0.056718903728498839 0.05077300863757666 -0.0018265403790526321 0.053344071193762249 -0.027637603396779054 -0.011733184083735878 -0.0062086897984843358 0.041225719429978824 -0.0066562244004450752 0.05005189195057435 0.01207254530962743 0.015509829761823031 0.2021182425554324 0.0097270174293467154 -0.00087018127173253798 0.033918484367027005 0.041655849701589379 -0.016653961337328362 -0.019382415358326834 -0.032729173242878516 -0.00029527523249290384 0.013518509482349101 -0.013728705269100317 -0.00094793427049981677 0.0067689644761012475 -0.018338382252222084 0.0021946416656217914 -0.0056536560799646182 -0.0031795933673451331 0.1145550000962226 0.029203812741806331
leaf_weight=321.82287593185902 21.459864124655724 727.14538472890854 40.051441073417664 595.71974245458841 1569.9008012115955 954.94398960471153 77.882942393422127 3082.9267895519733 222.96259848773479 710.44563545286655 353.16522617638111 3.7524438947439185 36.062010392546654 2797.9260408580303 336.69267329573631 93.630045741796494 57.401526376605034 1363.5908341705799 99.083572283387184 6407.4542492330074 912.04778864979744 548.06084430217743 1612.7270020097494 8153.8224544227123 240.27396760880947 1276.177320048213 377.61886492371559 217.07119329273701 16.045184403657913 250.6673716455698
leaf_count=3093 119 3172 164 3829 7365 4490 337 15539 937 3190 1612 22 210 12378 1428 413 263 7571 472 30486 3950 2619 7203 36513 1086 5948 1741 1010 72 1150
internal_value=-0.000137183 0.000892213 -0.00427213 -0.0351055 0.00387868 0.00272746 -0.00280116 -0.0102643 0.0119482 0.0211446 -0.000677381 -0.0241609 0.0278596 0.00434566 0.00512127 0.00676526 -0.00365729 -0.0182954 -0.000969458 -0.000538893 0.00671145 -0.00135376 0.00583807 0.00716502 -0.00648838 -0.00105871 0.00585262 0.0138813 0.0253076 0.0206593
internal_weight=33478.5 32521.2 11915.8 957.357 20605.4 18032.8 4083.04 4467.98 2572.6 933.408 7447.82 635.534 39.8145 13949.7 12994.8 10196.9 4005.16 1385.05 7407.76 7308.68 1639.19 6955.52 9860.18 8247.45 3086.35 1516.45 918.804 541.185 324.114 308.069
internal_count=158382 151228 58582 7154 92646 81397 18972 23229 11249 4127 35353 4061 232 62425 57935 45557 18635 7690 35189 34717 7122 33105 44129 36926 14399 7034 4236 2495 1485 1413
is_linear=0
shrinkage=0.05


Tree=21
num_leaves=31
num_cat=0
split_feature=66 3 21 119 140 0 72 7 27 24 71 13 130 183 126 4 71 39 129 43 17 70 27 8 165 79 134 74 129 28
split_gain=446.337 186.086 91.7069 90.1543 71.883 93.3471 58.397 50.2932 44.9 42.0547 45.0245 61.0321 41.3522 44.1643 59.6285 48.6281 46.0463 41.0528 40.9199 39.4835 51.1479 39.8252 39.2785 37.9971 37.8767 37.2871 58.4134 36.8067 36.7085 45.5805
threshold=2.1669103808419936 0.19170206475163801 0.99999999999999833 4.8155680162283492 0.0048122293403024038 -0.048474679131303405 96486794263.485825 -257.76944959389078 16.791247086498363 13980.053763532394 -0.95891013448104168 14.374710204670093 7.5156495444831153 1.0000000180025095e-35 52.144443384463827 -0.00021291438442515013 -0.15700338812733047 -16.390122429637422 -0.074390116036099976 -0.0010900609908092937 -4.3222136274455716 0.014863566761704193 28.54762960649137 0.077680385512115216 871.15525712096905 0.010152348171703353 170669.69352048219 -0.34738798358132827 -0.012232357268420998 0.019882691036859409
decision_type=2 2 2 2 2 2 2 2 2 2 2 2 2 2 2 2 2 2 2 2 2 2 2 2 2 2 2 2 2 2
left_child=3 2 6 -1 5 -3 7 8 -2 10 11 -5 -6 14 15 -14 -16 -8 -7 21 23 27 -10 24 -21 26 -22 -15 -9 -30
right_child=1 4 -4 9 12 18 17 28 22 -11 -12 -13 13 19 16 -17 -18 -19 -20 20 25 -23 -24 -25 -26 -27 -28 -29 29 -31
leaf_value=-0.056348951045388257 -0.042240669621039041 0.0072333699549529187 -0.012590112522145626 0.1537503733579807 -0.00099761518001579837 0.053682450311148912 0.060467365330347037 0.00096455475588134738 0.075719409360433851 0.02601660358119964 -0.029789100789885295 -0.011315969260960741 -0.031563597631329071 0.0071618797506322164 0.070409350203069127 0.0074645947416938216 0.020235650372081547 0.0028407975550041966 0.022089849959315389 0.063848189207659681 0.0016619087193828878 0.0040546722315186407 -0.023611756413123186 0.066848034172343154 -0.011862698861748854 0.0018502855309795584 0.031119139838493067 -0.012529277982652158 -0.0014088119152417787 -0.010571312570389712
leaf_weight=308.08629681915045 14.635487377643583 1505.6312943398952 2316.578632697463 7.836362540721896 4542.2200011759996 158.05353210866451 31.15503878891468 2144.5891269147396 48.390621036291122 40.420062065124512 558.28326044976711 19.621646963059902 81.167532399296761 299.65776386857033 57.499213039875031 4780.3242987245321 223.37051847577095 3860.1360873878002 291.58199273049831 24.361889943480492 382.21491147577763 1146.9695638567209 12.529109582304953 55.962945774197578 51.316111013293266 3468.172774553299 300.6923900693655 1140.6654349416494 2335.9458792507648 3240.0329713374376
leaf_count=3093 66 6500 11773 48 20715 668 135 10234 217 232 3654 127 357 1358 250 20993 985 18007 1248 109 1711 5180 57 252 231 15646 1324 5150 11685 16377
internal_value=-0.000132128 0.000846939 -0.00350185 -0.0342058 0.0041371 0.0132036 -0.00170046 -0.00419743 0.036398 -0.0233109 -0.0267148 0.035793 0.00306626 0.00460293 0.00810713 0.00681298 0.0305071 0.00330218 0.0331951 0.00197995 0.00492615 -0.00289686 0.0552904 0.03561 0.0125098 0.00395309 0.0146323 -0.00843255 -0.00459471 -0.00673286
internal_weight=33448.1 32513.9 14004 934.248 18509.9 1955.27 11687.4 7796.12 75.5552 626.161 585.741 27.458 16554.6 12012.4 5142.36 4861.49 280.87 3891.29 449.636 6870.01 4282.72 2587.29 60.9197 131.641 75.678 4151.08 682.907 1440.32 7720.57 5575.98
internal_count=158382 151228 68551 7154 82677 8416 56778 38636 340 4061 3829 175 74261 53546 22585 21350 1235 18142 1916 30961 19273 11688 274 592 340 18681 3035 6508 38296 28062
is_linear=0
shrinkage=0.05


Tree=22
num_leaves=31
num_cat=0
split_feature=66 3 110 21 190 0 72 63 130 93 40 7 45 24 71 28 82 20 24 48 92 39 168 64 72 93 57 47 108 109
split_gain=413.26 167.943 89.3154 83.448 66.3904 78.1557 52.7797 47.4935 44.5902 53.3431 42.6824 40.0623 38.6403 38.2796 39.9055 55.6704 36.6204 36.5851 42.5415 36.4656 39.5368 36.402 36.1155 35.3258 34.2265 33.8755 33.4044 43.789 32.8049 38.5931
threshold=2.1669103808419936 0.19170206475163801 -5.9788690890822425 0.99999999999999833 1.0000000180025095e-35 -0.048474679131303405 96486794263.485825 -0.62122481660151352 7.5156495444831153 81.35446930339306 -2.9344930972170151 -174.34609030831095 91.254656295359453 22461.993302084531 -0.95891013448104168 0.16339452217323144 25789.706506714178 94.716190641536471 -13332129.577768179 -92553.888784529656 0.26250951095202241 -16.390122429637422 1629.4873657226565 -23936.607455364498 37830031361512.797 287.35155825489204 1391050.0000000002 -5611871.8023192631 1.5839078910442224 20.917645176817995
decision_type=2 2 2 2 2 2 2 2 2 2 2 2 2 2 2 2 2 2 2 2 2 2 2 2 2 2 2 2 2 2
left_child=2 3 13 6 8 -6 7 -2 19 10 -10 -9 -11 14 15 22 -15 -12 -19 -3 28 -8 -1 -24 -20 -23 -13 -28 -21 -30
right_child=1 4 -4 -5 5 -7 21 11 9 12 17 26 -14 16 -16 -17 -18 18 24 20 -22 25 23 -25 -26 -27 27 -29 29 -31
leaf_value=-0.043154058299345016 -0.014467975192608631 -0.0063568635254968829 -0.055990852676056413 -0.012030857803894507 0.0071786233453678214 0.036633382633258132 0.056550781135058986 0.031763850300302585 -0.0057218005413355606 -0.0033455001045801618 0.0074179940704617838 -0.0034412235073652715 0.0064597034633540251 0.16910394480372942 -0.028679892396990061 0.18219637522326138 0.0092601053269688958 0.050229702307658691 0.026753777503727691 0.004988145780906437 -0.0061693800993246964 0.0019678700851449064 -0.032493849466978461 0.18744454968131993 -0.029632839564022996 0.032800880476531367 0.079869239242439993 0.0071219921619038147 0.046361280514481767 -0.021938938934489099
leaf_weight=15.856650732457643 950.49172584712505 1892.4874179065228 294.33277195692062 2303.396192535758 752.77593693137169 321.35090257227421 31.634120211005211 84.069445192813873 610.07411161065102 2775.0001349747181 7624.0551310181618 6625.6933720558882 1575.0730887204409 4.0065580159425727 551.3024679645896 5.0752477049827567 33.91031177341938 109.40455624461174 76.657765686511993 1759.1237948834896 867.55879275500774 3772.9284687787294 3.2628534436225891 4.1449981927871695 41.471791878342628 91.236956581473351 26.510381951928139 94.150301203131676 96.469892337918282 26.326974660158157
leaf_count=104 4782 8545 3090 11773 3240 1379 135 377 2701 12552 33714 32930 6954 21 3674 30 192 474 331 8064 3985 17592 20 23 181 415 120 427 438 119
internal_value=-0.000127236 0.000803992 -0.0333245 -0.00333327 0.00392575 0.0159907 -0.00161755 -0.00399618 0.00318326 0.00470448 0.00701774 -0.00253897 0.000204765 -0.0225216 -0.0257054 0.0321579 0.0261503 0.00800762 0.0277643 -0.00101529 0.00266136 0.00313317 -0.000573585 0.0905707 0.0069581 0.00269587 -0.00296643 0.0231053 0.0067323 0.0317181
internal_weight=33419.8 32507.9 911.892 13980.1 18527.8 1074.13 11676.7 7780.92 17453.7 12811.7 8461.66 6830.42 4350.07 617.559 579.642 28.3398 37.9169 7851.59 227.534 4641.97 2749.48 3895.8 23.2645 7.40785 118.13 3864.17 6746.35 120.661 1881.92 122.797
internal_count=158382 151228 7154 68551 82677 4619 56778 38636 78058 56907 37401 33854 19506 4064 3851 177 213 34700 986 21151 12606 18142 147 43 512 18007 33477 547 8621 557
is_linear=0
shrinkage=0.05


Tree=23
num_leaves=31
num_cat=0
split_feature=3 129 3 126 16 85 190 0 42 40 165 28 98 130 63 4 121 91 2 24 129 139 54 126 84 46 63 105 186 90
split_gain=368.072 149.456 128.601 107.151 66.12 61.6983 53.6358 81.7508 48.932 43.6868 46.7325 51.7169 50.6796 42.0982 41.3171 45.7805 41.197 40.372 40.002 39.1462 37.4749 36.4463 36.324 36.2103 35.7051 34.4602 32.4975 32.3789 50.5646 33.9347
threshold=0.022430331140749372 -0.023107628272123946 0.23480927367897828 73.253115895752032 5.5955343738400929 0.090939544998385372 1.0000000180025095e-35 -0.061277694145741496 150002.5001565167 148.54884072465859 2659.4371374920861 4.9642571638589432 -1.1969517315897711 7.5156495444831153 -0.50378698451120318 16.78805056765005 0.11596509914084512 0.0032944607598854722 -0.11085718429508624 4104.6635041215914 0.032327565944357213 2623.8762976074222 219723798959.67593 50.123022193702056 0.15098011980659795 93.538386505343567 0.35703202192647571 2742126640750.0005 -0.21662025808682303 8757577.5000000019
decision_type=2 2 2 2 2 2 2 2 2 2 2 2 2 2 2 2 2 2 2 2 2 2 2 2 2 2 2 2 2 2
left_child=1 26 4 19 22 9 13 -8 14 10 11 16 -13 -4 15 -7 27 21 -9 20 -3 -12 -2 -14 -24 -15 -1 29 -29 -6
right_child=2 3 6 -5 5 8 7 18 -10 -11 17 12 23 25 -16 -17 -18 -19 -20 -21 -22 -23 24 -25 -26 -27 -28 28 -30 -31
leaf_value=0.043562259724889668 -0.011578317558909791 -0.025799856639171767 -0.0009949846595300421 -0.055760833208673477 0.0043832593238209445 -0.018734535161483792 0.0037595701133784584 0.067473697555241699 0.0043122407498712738 0.042036897527251087 -0.033087809560029317 -0.021152922919747744 0.036261139205446345 0.0056116742380224426 -0.0046363437195565136 0.0826012691479239 -0.0067764051668815807 -0.01815413785491644 0.025953459534741471 0.0050194516408933083 0.04920253826076787 0.0068772754247859854 0.12150412303264375 0.0089967960744671421 -0.015703397003044312 -0.0082155453143537942 -0.035546546640763475 0.04104034152553411 -0.002596792824942865 -0.015311246820709196
leaf_weight=93.909982547163963 1891.2334495633841 1025.9993279576302 3910.0538160949945 281.83744079619646 3717.7381296306849 742.35035403072834 562.31276895105839 71.807668223977089 1340.1618752330542 68.793615773320198 65.28706194460392 71.675419449806213 267.62299585342407 10730.440828353167 4890.4500294327736 11.315247520804403 1032.8710987120867 493.86164297163486 301.90093946456909 125.07882554084063 16.929248809814453 451.98255188763142 10.210490807890894 223.47293201088905 8.8522161543369275 470.34830762445927 15.064431518316267 145.95378975570202 121.77293618023396 232.39471052587032
leaf_count=406 9891 6371 17733 3082 17739 3728 2408 317 6169 300 294 352 1248 47399 23890 54 4923 2303 1283 688 86 2104 47 1031 39 2144 65 650 551 1087
